{"learner":{"attributes":{},"feature_names":["CreditScore","Geography","Gender","Age","Tenure","Balance","NumOfProducts","HasCrCard","IsActiveMember","EstimatedSalary"],"feature_types":["int","int","int","int","int","float","int","int","int","float"],"gradient_booster":{"model":{"gbtree_model_param":{"num_parallel_tree":"1","num_trees":"100"},"iteration_indptr":[0,1,2,3,4,5,6,7,8,9,10,11,12,13,14,15,16,17,18,19,20,21,22,23,24,25,26,27,28,29,30,31,32,33,34,35,36,37,38,39,40,41,42,43,44,45,46,47,48,49,50,51,52,53,54,55,56,57,58,59,60,61,62,63,64,65,66,67,68,69,70,71,72,73,74,75,76,77,78,79,80,81,82,83,84,85,86,87,88,89,90,91,92,93,94,95,96,97,98,99,100],"tree_info":[0,0,0,0,0,0,0,0,0,0,0,0,0,0,0,0,0,0,0,0,0,0,0,0,0,0,0,0,0,0,0,0,0,0,0,0,0,0,0,0,0,0,0,0,0,0,0,0,0,0,0,0,0,0,0,0,0,0,0,0,0,0,0,0,0,0,0,0,0,0,0,0,0,0,0,0,0,0,0,0,0,0,0,0,0,0,0,0,0,0,0,0,0,0,0,0,0,0,0,0],"trees":[{"base_weights":[-1.6486584E-1,-5.777455E-1,1.2525135E0,-6.6121656E-1,2.7566693E0,2.3622463E0,3.3860934E-1,-2.9087266E-1,-1.0286068E0,1.635122E0,3.419352E0,1.6372439E0,3.3233933E0,1.5364327E-1,5.125001E-1,-4.9417388E-1,3.9590332E-1,-1.1677544E0,-8.311915E-1,7.1169484E-1,3.493977E-1,5.3395015E-1,1.1421111E-1,2.288343E0,5.344354E-1,3.356714E0,1.1421111E-1,7.0721966E-1,-5.8770007E-1,-1.0793081E-1,-3.787274E-2,1.180324E-1,-6.915486E-3,-1.5985979E-1,-1.865636E-1,-1.4957345E-1,-8.658022E-2,-4.1540615E-2,3.7551495E-1,2.5593746E-1,3.9706883E-1,-2.985611E-2,5.366923E-1,1.5578948E-1,5.0829923E-1,1.6597202E-1,-5.545565E-2,-1.5908793E-1,6.7069232E-3],"categories":[],"categories_nodes":[],"categories_segments":[],"categories_sizes":[],"default_left":[0,0,0,0,0,0,0,0,0,0,0,0,0,0,0,0,0,0,0,0,0,0,0,0,0,0,0,0,0,0,0,0,0,0,0,0,0,0,0,0,0,0,0,0,0,0,0,0,0],"id":0,"left_children":[1,3,5,7,9,11,13,15,17,19,21,23,25,27,-1,29,31,33,35,37,-1,-1,-1,39,41,43,-1,45,47,-1,-1,-1,-1,-1,-1,-1,-1,-1,-1,-1,-1,-1,-1,-1,-1,-1,-1,-1,-1],"loss_changes":[8.338165E2,3.0885373E2,3.2521725E2,1.462378E2,1.4575684E1,9.5604614E1,1.0050321E2,7.527572E1,1.3870239E1,6.0310326E0,3.3089294E0,5.9543503E1,2.6837769E0,6.954066E1,0E0,2.2442108E1,2.1358046E1,1.1125183E0,8.986237E0,1.2361754E1,0E0,0E0,0E0,6.532776E0,7.3757065E1,9.460449E-1,0E0,4.206679E1,2.174503E1,0E0,0E0,0E0,0E0,0E0,0E0,0E0,0E0,0E0,0E0,0E0,0E0,0E0,0E0,0E0,0E0,0E0,0E0,0E0,0E0],"parents":[2147483647,0,0,1,1,2,2,3,3,4,4,5,5,6,6,7,7,8,8,9,9,10,10,11,11,12,12,13,13,15,15,16,16,17,17,18,18,19,19,23,23,24,24,25,25,27,27,28,28],"right_children":[2,4,6,8,10,12,14,16,18,20,22,24,26,28,-1,30,32,34,36,38,-1,-1,-1,40,42,44,-1,46,48,-1,-1,-1,-1,-1,-1,-1,-1,-1,-1,-1,-1,-1,-1,-1,-1,-1,-1,-1,-1],"split_conditions":[4.5E1,3E0,1E0,2E0,3.934483E4,5.1E1,3E0,4E1,5.481755E4,3.8E1,1.8603572E5,2E0,6.9E1,2E0,5.125001E-1,1E0,1E0,1E0,3.7E1,1.6347102E5,3.493977E-1,5.3395015E-1,1.1421111E-1,1E0,3E0,3.1482E3,1.1421111E-1,5.9E1,3.934483E4,-1.0793081E-1,-3.787274E-2,1.180324E-1,-6.915486E-3,-1.5985979E-1,-1.865636E-1,-1.4957345E-1,-8.658022E-2,-4.1540615E-2,3.7551495E-1,2.5593746E-1,3.9706883E-1,-2.985611E-2,5.366923E-1,1.5578948E-1,5.0829923E-1,1.6597202E-1,-5.545565E-2,-1.5908793E-1,6.7069232E-3],"split_indices":[3,6,8,6,5,3,6,3,5,3,9,6,3,6,0,1,8,2,3,9,0,0,0,1,6,9,0,3,5,0,0,0,0,0,0,0,0,0,0,0,0,0,0,0,0,0,0,0,0],"split_type":[0,0,0,0,0,0,0,0,0,0,0,0,0,0,0,0,0,0,0,0,0,0,0,0,0,0,0,0,0,0,0,0,0,0,0,0,0,0,0,0,0,0,0,0,0,0,0,0,0],"sum_hessian":[1.4225864E3,1.1021305E3,3.2045593E2,1.0759966E3,2.6133919E1,1.4400691E2,1.7644902E2,5.3673663E2,5.392599E2,1.0994269E1,1.5139649E1,8.362854E1,6.0378365E1,1.6743732E2,9.011696E0,4.143578E2,1.2237884E2,3.134268E2,2.2583311E2,5.5872517E0,5.4070177E0,1.4058247E1,1.0814035E0,5.190737E1,3.172117E1,5.9296963E1,1.0814035E0,9.5884445E1,7.155287E1,2.1339697E2,2.0096083E2,6.452374E1,5.785509E1,1.40222E2,1.732048E2,1.3481497E2,9.1018135E1,4.1453805E0,1.4418714E0,2.1988539E1,2.991883E1,2.6314154E1,5.4070177E0,1.2616374E0,5.8035324E1,6.993076E1,2.5953686E1,4.055263E1,3.1000235E1],"tree_param":{"num_deleted":"0","num_feature":"10","num_nodes":"49","size_leaf_vector":"1"}},{"base_weights":[-1.494535E-1,-5.8325344E-1,8.303776E-1,-6.545258E-1,1.8461303E0,1.4395251E0,2.2647654E-1,-3.3070582E-1,-9.9448407E-1,1.0124482E0,2.2846296E0,7.620792E-1,2.0444872E0,8.213035E-2,2.4284215E0,-8.306986E-2,-5.8397627E-1,-1.0877143E0,-7.400305E-1,4.3626502E-1,3.4092474E-1,7.760965E-2,3.6697793E-1,5.9147084E-1,3.9131573E-1,2.3048878E0,1.4329851E0,5.441881E-1,-5.4578227E-1,3.940819E-1,2.117969E-2,-4.3056607E-2,5.410854E-2,-1.3178532E-1,-5.7593055E-2,-1.7319277E-1,-1.4698595E-1,-1.1395066E-1,1.2843455E-1,1.4569844E-1,-5.364112E-2,1.6920723E-1,-5.1725682E-2,3.5158968E-1,1.1292266E-1,1.3232681E-1,4.0147242E-1,1.1741156E-1,-4.89494E-2,-1.5044588E-1,-9.1256684E-4],"categories":[],"categories_nodes":[],"categories_segments":[],"categories_sizes":[],"default_left":[0,0,0,0,0,0,0,0,0,0,0,0,0,0,0,0,0,0,0,0,0,0,0,0,0,0,0,0,0,0,0,0,0,0,0,0,0,0,0,0,0,0,0,0,0,0,0,0,0,0,0],"id":1,"left_children":[1,3,5,7,9,11,13,15,17,19,21,23,25,27,29,31,33,35,37,39,-1,-1,-1,41,-1,43,45,47,49,-1,-1,-1,-1,-1,-1,-1,-1,-1,-1,-1,-1,-1,-1,-1,-1,-1,-1,-1,-1,-1,-1],"loss_changes":[5.95528E2,1.6932208E2,1.578595E2,1.0359073E2,7.898941E0,8.609961E1,6.881099E1,3.0368221E1,1.0108002E1,7.3049746E0,3.7437668E0,3.0748787E1,1.4594299E1,5.9715733E1,5.686508E0,2.2406288E1,1.3780617E1,1.2815552E0,4.615822E0,4.2033024E0,0E0,0E0,0E0,4.8176888E1,0E0,2.9126282E0,2.2440742E1,2.4860172E1,2.1538969E1,0E0,0E0,0E0,0E0,0E0,0E0,0E0,0E0,0E0,0E0,0E0,0E0,0E0,0E0,0E0,0E0,0E0,0E0,0E0,0E0,0E0,0E0],"parents":[2147483647,0,0,1,1,2,2,3,3,4,4,5,5,6,6,7,7,8,8,9,9,10,10,11,11,12,12,13,13,14,14,15,15,16,16,17,17,18,18,19,19,23,23,25,25,26,26,27,27,28,28],"right_children":[2,4,6,8,10,12,14,16,18,20,22,24,26,28,30,32,34,36,38,40,-1,-1,-1,42,-1,44,46,48,50,-1,-1,-1,-1,-1,-1,-1,-1,-1,-1,-1,-1,-1,-1,-1,-1,-1,-1,-1,-1,-1,-1],"split_conditions":[4.3E1,3E0,1E0,2E0,3.934483E4,4.8E1,3E0,1E0,1.0812239E5,1.6347102E5,2E0,3E0,2E0,2E0,6.1E1,3.8E1,3.3E1,3.6E1,2.040174E5,6.52E2,3.4092474E-1,7.760965E-2,3.6697793E-1,2E0,3.9131573E-1,1.7132598E5,3E0,5.9E1,3.934483E4,3.940819E-1,2.117969E-2,-4.3056607E-2,5.410854E-2,-1.3178532E-1,-5.7593055E-2,-1.7319277E-1,-1.4698595E-1,-1.1395066E-1,1.2843455E-1,1.4569844E-1,-5.364112E-2,1.6920723E-1,-5.1725682E-2,3.5158968E-1,1.1292266E-1,1.3232681E-1,4.0147242E-1,1.1741156E-1,-4.89494E-2,-1.5044588E-1,-9.1256684E-4],"split_indices":[3,6,8,6,5,3,6,8,5,9,4,6,6,6,3,3,3,3,5,0,0,0,0,6,0,5,6,3,5,0,0,0,0,0,0,0,0,0,0,0,0,0,0,0,0,0,0,0,0,0,0],"split_type":[0,0,0,0,0,0,0,0,0,0,0,0,0,0,0,0,0,0,0,0,0,0,0,0,0,0,0,0,0,0,0,0,0,0,0,0,0,0,0,0,0,0,0,0,0,0,0,0,0,0,0],"sum_hessian":[1.3989358E3,9.6992584E2,4.290099E2,9.4299133E2,2.6934553E1,2.1288834E2,2.1612155E2,4.8396936E2,4.5902194E2,1.0424402E1,1.651015E1,1.01493774E2,1.1139456E2,2.0379903E2,1.2322532E1,2.4537814E2,2.3859122E2,3.335401E2,1.2548184E2,8.077786E0,2.3466163E0,1.7376374E0,1.4772514E1,9.4118805E1,7.374969E0,7.618355E1,3.5211014E1,1.1748182E2,8.63172E1,1.1200417E1,1.1221157E0,1.6835352E2,7.702463E1,9.511456E1,1.4347667E2,1.998231E2,1.33717E2,1.24474396E2,1.0074483E0,4.6919556E0,3.3858309E0,5.9700825E1,3.441798E1,7.381645E1,2.3670964E0,2.5586794E1,9.624221E0,9.229126E1,2.5190563E1,4.6265934E1,4.005127E1],"tree_param":{"num_deleted":"0","num_feature":"10","num_nodes":"51","size_leaf_vector":"1"}},{"base_weights":[-1.3407111E-1,-5.607219E-1,6.291505E-1,-6.2466496E-1,1.45535E0,1.0728831E0,1.5924639E-1,-3.4083873E-1,-9.4074273E-1,8.617793E-1,1.7511463E0,5.7666993E-1,1.5948128E0,3.7119694E-2,1.9077613E0,-1.3417561E-1,-5.587596E-1,-1.072427E0,-7.5630754E-1,3.2520875E-1,2.8118044E-1,2.757346E-1,3.319268E-2,4.4377246E-1,3.0876473E-1,1.1918665E0,1.8816719E0,4.2749727E-1,-5.235056E-1,3.0567703E-1,1.942539E-2,-6.2106106E-2,2.2312803E-2,-1.217446E-1,-5.7158798E-2,-1.4440906E-1,-1.7301267E-1,-1.15573406E-1,1.14210665E-1,-4.188658E-2,1.4663213E-1,1.3835397E-1,-6.025142E-2,2.2963525E-1,6.5568924E-2,2.8904584E-1,1.2709858E-1,9.762976E-2,-2.8583901E-2,-1.4551705E-1,-6.613621E-3],"categories":[],"categories_nodes":[],"categories_segments":[],"categories_sizes":[],"default_left":[0,0,0,0,0,0,0,0,0,0,0,0,0,0,0,0,0,0,0,0,0,0,0,0,0,0,0,0,0,0,0,0,0,0,0,0,0,0,0,0,0,0,0,0,0,0,0,0,0,0,0],"id":2,"left_children":[1,3,5,7,9,11,13,15,17,19,21,23,25,27,29,31,33,35,37,39,-1,-1,-1,41,-1,43,45,47,49,-1,-1,-1,-1,-1,-1,-1,-1,-1,-1,-1,-1,-1,-1,-1,-1,-1,-1,-1,-1,-1,-1],"loss_changes":[4.444065E2,1.13739105E2,1.0188396E2,7.584674E1,3.2677078E0,6.4230835E1,5.0940983E1,2.0142014E1,8.931122E0,5.3775444E0,1.8832474E0,2.478926E1,1.1863251E1,4.9315273E1,3.3392372E0,1.8409529E1,9.494965E0,9.476013E-1,4.256195E0,3.5898395E0,0E0,0E0,0E0,4.9351547E1,0E0,1.3014671E1,1.6264954E0,1.8455288E1,1.9768143E1,0E0,0E0,0E0,0E0,0E0,0E0,0E0,0E0,0E0,0E0,0E0,0E0,0E0,0E0,0E0,0E0,0E0,0E0,0E0,0E0,0E0,0E0],"parents":[2147483647,0,0,1,1,2,2,3,3,4,4,5,5,6,6,7,7,8,8,9,9,10,10,11,11,12,12,13,13,14,14,15,15,16,16,17,17,18,18,19,19,23,23,25,25,26,26,27,27,28,28],"right_children":[2,4,6,8,10,12,14,16,18,20,22,24,26,28,30,32,34,36,38,40,-1,-1,-1,42,-1,44,46,48,50,-1,-1,-1,-1,-1,-1,-1,-1,-1,-1,-1,-1,-1,-1,-1,-1,-1,-1,-1,-1,-1,-1],"split_conditions":[4.2E1,3E0,1E0,2E0,3.934483E4,4.8E1,3E0,1E0,5.481755E4,1.6347102E5,1.8603572E5,3E0,5.2E1,2E0,6.1E1,1E0,3.3E1,1E0,2.040174E5,3.8E1,2.8118044E-1,2.757346E-1,3.319268E-2,2E0,3.0876473E-1,2E0,6.5E1,2E0,3.934483E4,3.0567703E-1,1.942539E-2,-6.2106106E-2,2.2312803E-2,-1.217446E-1,-5.7158798E-2,-1.4440906E-1,-1.7301267E-1,-1.15573406E-1,1.14210665E-1,-4.188658E-2,1.4663213E-1,1.3835397E-1,-6.025142E-2,2.2963525E-1,6.5568924E-2,2.8904584E-1,1.2709858E-1,9.762976E-2,-2.8583901E-2,-1.4551705E-1,-6.613621E-3],"split_indices":[3,6,8,6,5,3,6,8,5,9,9,6,3,6,3,1,3,2,5,3,0,0,0,6,0,6,3,1,5,0,0,0,0,0,0,0,0,0,0,0,0,0,0,0,0,0,0,0,0,0,0],"split_type":[0,0,0,0,0,0,0,0,0,0,0,0,0,0,0,0,0,0,0,0,0,0,0,0,0,0,0,0,0,0,0,0,0,0,0,0,0,0,0,0,0,0,0,0,0,0,0,0,0,0,0],"sum_hessian":[1.3626794E3,8.7423566E2,4.8844373E2,8.480292E2,2.620651E1,2.5055772E2,2.37886E2,4.4790512E2,4.0012405E2,1.0017646E1,1.6188866E1,1.295222E2,1.2103552E2,2.2330994E2,1.4576064E1,2.3071986E2,2.1718524E2,2.306373E2,1.6948676E2,7.411865E0,2.6057806E0,1.51262665E1,1.0625992E0,1.2005418E2,9.468031E0,5.247693E1,6.855859E1,1.3178333E2,9.1526596E1,1.3446435E1,1.1296293E0,1.1575472E2,1.1496515E2,8.8162025E1,1.2902322E2,1.03430305E2,1.2720699E2,1.6840547E2,1.081282E0,4.143999E0,3.2678664E0,7.660119E1,4.3452988E1,3.5501156E1,1.6975775E1,6.485521E1,3.7033806E0,9.676062E1,3.502271E1,4.6854687E1,4.4671913E1],"tree_param":{"num_deleted":"0","num_feature":"10","num_nodes":"51","size_leaf_vector":"1"}},{"base_weights":[-1.2006304E-1,-5.07921E-1,5.2775294E-1,-5.6766856E-1,1.2344749E0,8.897216E-1,1.3407479E-1,-3.0050868E-1,-8.8404477E-1,7.5174487E-1,1.47241E0,4.8122093E-1,1.3137555E0,2.8896103E-2,1.6091682E0,-6.3647814E-2,-4.904607E-1,-1.0236536E0,-6.950905E-1,2.8497517E-1,2.4180269E-1,4.553749E-2,2.3888963E-1,3.684229E-1,2.6038828E-1,9.8190045E-1,1.5511229E0,3.5209277E-1,-4.7249383E-1,2.5741684E-1,1.7818853E-2,2.5908561E-2,-5.1303197E-2,-9.5643975E-2,-3.8910042E-2,-1.3610783E-1,-1.6670863E-1,-1.2236956E-1,-6.49181E-2,-8.325706E-2,9.729035E-2,1.1190487E-1,-5.340937E-2,1.8816954E-1,5.4943074E-2,2.3795098E-1,1.095256E-1,7.684363E-2,-5.0586868E-2,-1.3730699E-1,-5.664849E-3],"categories":[],"categories_nodes":[],"categories_segments":[],"categories_sizes":[],"default_left":[0,0,0,0,0,0,0,0,0,0,0,0,0,0,0,0,0,0,0,0,0,0,0,0,0,0,0,0,0,0,0,0,0,0,0,0,0,0,0,0,0,0,0,0,0,0,0,0,0,0,0],"id":3,"left_children":[1,3,5,7,9,11,13,15,17,19,21,23,25,27,29,31,33,35,37,39,-1,-1,-1,41,-1,43,45,47,49,-1,-1,-1,-1,-1,-1,-1,-1,-1,-1,-1,-1,-1,-1,-1,-1,-1,-1,-1,-1,-1,-1],"loss_changes":[3.3247275E2,8.684874E1,7.050815E1,6.741766E1,2.080471E0,4.406476E1,3.6971157E1,1.9570446E1,8.946045E0,4.0400376E0,1.9812241E0,1.8184298E1,8.404861E0,3.6421783E1,2.3243256E0,1.289276E1,8.050884E0,1.1177216E0,4.6708374E0,2.9498453E0,0E0,0E0,0E0,3.3997997E1,0E0,8.816399E0,9.1615295E-1,1.5259144E1,1.6931463E1,0E0,0E0,0E0,0E0,0E0,0E0,0E0,0E0,0E0,0E0,0E0,0E0,0E0,0E0,0E0,0E0,0E0,0E0,0E0,0E0,0E0,0E0],"parents":[2147483647,0,0,1,1,2,2,3,3,4,4,5,5,6,6,7,7,8,8,9,9,10,10,11,11,12,12,13,13,14,14,15,15,16,16,17,17,18,18,19,19,23,23,25,25,26,26,27,27,28,28],"right_children":[2,4,6,8,10,12,14,16,18,20,22,24,26,28,30,32,34,36,38,40,-1,-1,-1,42,-1,44,46,48,50,-1,-1,-1,-1,-1,-1,-1,-1,-1,-1,-1,-1,-1,-1,-1,-1,-1,-1,-1,-1,-1,-1],"split_conditions":[4.2E1,3E0,1E0,2E0,3.934483E4,4.8E1,3E0,1E0,5.481755E4,1.6347102E5,2E0,3E0,5.2E1,2E0,6.1E1,1E0,3.6E1,1E0,3.7E1,3.3E1,2.4180269E-1,4.553749E-2,2.3888963E-1,2E0,2.6038828E-1,2E0,6.5E1,5.9E1,3.934483E4,2.5741684E-1,1.7818853E-2,2.5908561E-2,-5.1303197E-2,-9.5643975E-2,-3.8910042E-2,-1.3610783E-1,-1.6670863E-1,-1.2236956E-1,-6.49181E-2,-8.325706E-2,9.729035E-2,1.1190487E-1,-5.340937E-2,1.8816954E-1,5.4943074E-2,2.3795098E-1,1.095256E-1,7.684363E-2,-5.0586868E-2,-1.3730699E-1,-5.664849E-3],"split_indices":[3,6,8,6,5,3,6,2,5,9,4,6,3,6,3,8,3,2,3,3,0,0,0,6,0,6,3,3,5,0,0,0,0,0,0,0,0,0,0,0,0,0,0,0,0,0,0,0,0,0,0],"split_type":[0,0,0,0,0,0,0,0,0,0,0,0,0,0,0,0,0,0,0,0,0,0,0,0,0,0,0,0,0,0,0,0,0,0,0,0,0,0,0,0,0,0,0,0,0,0,0,0,0,0,0],"sum_hessian":[1.3211522E3,8.2651825E2,4.9463394E2,7.99768E2,2.6750242E1,2.5703876E2,2.3759517E2,4.3466797E2,3.6510007E2,1.0205155E1,1.6545088E1,1.3200462E2,1.2503415E2,2.227332E2,1.4861971E1,1.9404207E2,2.406259E2,2.0742595E2,1.5767412E2,7.478635E0,2.7265203E0,1.8714182E0,1.4673669E1,1.2230316E2,9.701462E0,5.428158E1,7.075256E1,1.35614E2,8.711921E1,1.3725609E1,1.1363622E0,1.0514295E2,8.889912E1,1.4592474E2,9.4701164E1,9.408624E1,1.133397E2,1.0653757E2,5.1136543E1,2.1002917E0,5.3783426E0,8.037901E1,4.1924145E1,3.6904392E1,1.7377188E1,6.6948326E1,3.8042424E0,1.1024952E2,2.5364473E1,4.2607018E1,4.4512196E1],"tree_param":{"num_deleted":"0","num_feature":"10","num_nodes":"51","size_leaf_vector":"1"}},{"base_weights":[-1.0740827E-1,-4.1059798E-1,5.404372E-1,-4.705459E-1,1.1328526E0,8.804168E-1,1.7177872E-1,-2.0618227E-1,-8.091217E-1,6.860649E-1,1.3586007E0,6.482489E-1,1.3279375E0,7.8713804E-2,1.417078E0,2.580571E-1,-3.097673E-1,-9.7076494E-1,-6.0605884E-1,-2.0559835E-1,9.2380303E-1,2.1430655E-1,1.1557484E-2,2.6054615E-1,9.44057E-1,4.3904945E-2,1.3494818E0,3.4876102E-1,-3.9363644E-1,2.2918263E-1,1.634713E-2,-8.560323E-2,7.484308E-2,-9.283098E-2,-6.3427254E-3,-5.418502E-2,-1.4844126E-1,-1.13812335E-1,-5.5989467E-2,4.5554634E-2,-1.06693335E-1,8.4239796E-2,2.1388267E-1,2.0709822E-2,2.2921553E-1,4.3061838E-2,1.749811E-1,2.072825E-1,9.509556E-2,8.44693E-2,-2.8230501E-2,-1.2356876E-1,-1.8951698E-4],"categories":[],"categories_nodes":[],"categories_segments":[],"categories_sizes":[],"default_left":[0,0,0,0,0,0,0,0,0,0,0,0,0,0,0,0,0,0,0,0,0,0,0,0,0,0,0,0,0,0,0,0,0,0,0,0,0,0,0,0,0,0,0,0,0,0,0,0,0,0,0,0,0],"id":4,"left_children":[1,3,5,7,9,11,13,15,17,19,21,23,25,27,29,31,33,35,37,39,41,-1,-1,43,45,-1,47,49,51,-1,-1,-1,-1,-1,-1,-1,-1,-1,-1,-1,-1,-1,-1,-1,-1,-1,-1,-1,-1,-1,-1,-1,-1],"loss_changes":[2.5145146E2,8.120262E1,5.1009804E1,7.501576E1,2.3852768E0,2.1177628E1,2.27285E1,2.282644E1,1.1489044E1,2.9584885E0,1.761467E0,1.5994976E1,1.199707E0,2.3662897E1,1.8113003E0,1.7620703E1,3.1986088E1,1.9764404E0,5.6081467E0,1.1347208E0,1.1074715E0,0E0,0E0,9.5183115E0,1.1350388E1,0E0,7.413254E-1,1.3674341E1,1.1401328E1,0E0,0E0,0E0,0E0,0E0,0E0,0E0,0E0,0E0,0E0,0E0,0E0,0E0,0E0,0E0,0E0,0E0,0E0,0E0,0E0,0E0,0E0,0E0,0E0],"parents":[2147483647,0,0,1,1,2,2,3,3,4,4,5,5,6,6,7,7,8,8,9,9,10,10,11,11,12,12,13,13,14,14,15,15,16,16,17,17,18,18,19,19,20,20,23,23,24,24,26,26,27,27,28,28],"right_children":[2,4,6,8,10,12,14,16,18,20,22,24,26,28,30,32,34,36,38,40,42,-1,-1,44,46,-1,48,50,52,-1,-1,-1,-1,-1,-1,-1,-1,-1,-1,-1,-1,-1,-1,-1,-1,-1,-1,-1,-1,-1,-1,-1,-1],"split_conditions":[4.4E1,3E0,1E0,2E0,3.934483E4,5.2E1,3E0,5.756894E4,5.481755E4,6.548294E4,1.886709E5,1E0,3.1482E3,2E0,6.1E1,3.1E1,1E0,1E0,3.7E1,1E0,1.6347102E5,2.1430655E-1,1.1557484E-2,3E0,8.908631E4,4.3904945E-2,6.5E1,5.7E1,3.934483E4,2.2918263E-1,1.634713E-2,-8.560323E-2,7.484308E-2,-9.283098E-2,-6.3427254E-3,-5.418502E-2,-1.4844126E-1,-1.13812335E-1,-5.5989467E-2,4.5554634E-2,-1.06693335E-1,8.4239796E-2,2.1388267E-1,2.0709822E-2,2.2921553E-1,4.3061838E-2,1.749811E-1,2.072825E-1,9.509556E-2,8.44693E-2,-2.8230501E-2,-1.2356876E-1,-1.8951698E-4],"split_indices":[3,6,8,6,5,3,6,5,5,9,9,1,9,6,3,3,1,4,3,8,9,0,0,6,5,0,3,3,5,0,0,0,0,0,0,0,0,0,0,0,0,0,0,0,0,0,0,0,0,0,0,0,0],"split_type":[0,0,0,0,0,0,0,0,0,0,0,0,0,0,0,0,0,0,0,0,0,0,0,0,0,0,0,0,0,0,0,0,0,0,0,0,0,0,0,0,0,0,0,0,0,0,0,0,0,0,0,0,0],"sum_hessian":[1.2780421E3,8.7085223E2,4.0718994E2,8.389619E2,3.1890308E1,2.1111238E2,1.9607758E2,4.7201587E2,3.6694604E2,1.2060313E1,1.9829996E1,1.4061281E2,7.0499565E1,1.8343234E2,1.2645235E1,8.583518E1,3.861807E2,2.0220506E2,1.6474097E2,2.5671444E0,9.493169E0,1.8692558E1,1.1374376E0,6.166802E1,7.894479E1,1.7346156E0,6.8764946E1,1.1687527E2,6.6557076E1,1.1502834E1,1.1424012E0,1.9022839E1,6.681235E1,1.785419E2,2.076388E2,6.668483E0,1.9553658E2,9.8123055E1,6.661792E1,1.4780233E0,1.0891211E0,6.7454805E0,2.7476883E0,5.7245464E1,4.4225545E0,2.055062E1,5.8394173E1,6.4894905E1,3.8700454E0,8.3493965E1,3.33813E1,3.1225409E1,3.5331665E1],"tree_param":{"num_deleted":"0","num_feature":"10","num_nodes":"53","size_leaf_vector":"1"}},{"base_weights":[-9.575097E-2,-4.1813874E-1,3.9393905E-1,-4.686299E-1,9.2820036E-1,3.0980816E-1,1.494826E0,-2.3838633E-1,-7.798205E-1,6.078214E-1,1.1950886E0,5.774463E-1,-2.453899E-1,2.3130985E-1,1.0623709E-2,-2.6217379E-2,-4.1544545E-1,-9.3664557E-1,-5.8409613E-1,8.0915415E-1,4.9209185E-3,4.1693144E-2,1.3007274E0,8.474179E-1,2.4885777E-1,-7.423633E-1,1.5786919E-1,2.6145136E-2,-4.1228138E-2,-8.293571E-2,-3.1584114E-2,-1.1974627E-1,-1.5670729E-1,-1.0561032E-1,-5.1649883E-2,6.839269E-2,1.5692326E-1,9.316722E-2,-1.3294588E-1,2.0758897E-1,7.326748E-2,6.722927E-2,1.576958E-1,6.338073E-2,-3.7932925E-2,-6.563114E-2,-1.4082293E-1,1.393461E-1,2.728349E-3],"categories":[],"categories_nodes":[],"categories_segments":[],"categories_sizes":[],"default_left":[0,0,0,0,0,0,0,0,0,0,0,0,0,0,0,0,0,0,0,0,0,0,0,0,0,0,0,0,0,0,0,0,0,0,0,0,0,0,0,0,0,0,0,0,0,0,0,0,0],"id":5,"left_children":[1,3,5,7,9,11,13,15,17,19,21,23,25,-1,-1,27,29,31,33,35,37,-1,39,41,43,45,47,-1,-1,-1,-1,-1,-1,-1,-1,-1,-1,-1,-1,-1,-1,-1,-1,-1,-1,-1,-1,-1,-1],"loss_changes":[1.9567369E2,5.12325E1,4.511965E1,5.1467377E1,1.6118908E0,6.826767E1,2.2236328E0,1.5608776E1,8.849304E0,1.7515826E0,9.8358536E-1,2.725795E1,3.0143898E1,0E0,0E0,9.530983E0,6.264805E0,1.6820221E0,3.751068E0,4.300909E-1,3.091384E0,0E0,1.4702225E-1,1.3331284E1,1.2400865E1,3.6188622E0,8.980678E0,0E0,0E0,0E0,0E0,0E0,0E0,0E0,0E0,0E0,0E0,0E0,0E0,0E0,0E0,0E0,0E0,0E0,0E0,0E0,0E0,0E0,0E0],"parents":[2147483647,0,0,1,1,2,2,3,3,4,4,5,5,6,6,7,7,8,8,9,9,10,10,11,11,12,12,15,15,16,16,17,17,18,18,19,19,20,20,22,22,23,23,24,24,25,25,26,26],"right_children":[2,4,6,8,10,12,14,16,18,20,22,24,26,-1,-1,28,30,32,34,36,38,-1,40,42,44,46,48,-1,-1,-1,-1,-1,-1,-1,-1,-1,-1,-1,-1,-1,-1,-1,-1,-1,-1,-1,-1,-1,-1],"split_conditions":[4.2E1,3E0,3E0,2E0,1.0471994E5,2E0,6.5E1,1E0,5.481755E4,7E0,2E0,1E0,3.934483E4,2.3130985E-1,1.0623709E-2,1E0,3.6E1,1E0,3.7E1,3.7E1,6.3E2,4.1693144E-2,1.7281498E5,4.6E1,2E0,6.28E2,2E0,2.6145136E-2,-4.1228138E-2,-8.293571E-2,-3.1584114E-2,-1.1974627E-1,-1.5670729E-1,-1.0561032E-1,-5.1649883E-2,6.839269E-2,1.5692326E-1,9.316722E-2,-1.3294588E-1,2.0758897E-1,7.326748E-2,6.722927E-2,1.576958E-1,6.338073E-2,-3.7932925E-2,-6.563114E-2,-1.4082293E-1,1.393461E-1,2.728349E-3],"split_indices":[3,6,6,6,5,6,3,2,5,4,4,8,5,0,0,8,3,2,3,3,0,0,9,3,1,0,4,0,0,0,0,0,0,0,0,0,0,0,0,0,0,0,0,0,0,0,0,0,0],"split_type":[0,0,0,0,0,0,0,0,0,0,0,0,0,0,0,0,0,0,0,0,0,0,0,0,0,0,0,0,0,0,0,0,0,0,0,0,0,0,0,0,0,0,0,0,0,0,0,0,0],"sum_hessian":[1.237417E3,7.462614E2,4.9115558E2,7.199147E2,2.6346725E1,4.574762E2,3.3679375E1,4.1478775E2,3.0512692E2,1.3462937E1,1.2883788E1,3.086491E2,1.4882709E2,3.2517723E1,1.1616507E0,1.8920842E2,2.2557932E2,1.672953E2,1.3783163E2,9.836148E0,3.6267889E0,1.7057737E0,1.1178015E1,1.6857074E2,1.4007838E2,6.62904E1,8.253668E1,1.0490479E2,8.4303635E1,1.3398724E2,9.1592064E1,7.70511E1,9.0244194E1,9.057386E1,4.725778E1,5.123872E0,4.712277E0,2.323441E0,1.3033476E0,9.501087E0,1.6769269E0,5.806823E1,1.1050251E2,1.04175514E2,3.5902866E1,2.724465E1,3.904575E1,1.1791419E1,7.074526E1],"tree_param":{"num_deleted":"0","num_feature":"10","num_nodes":"49","size_leaf_vector":"1"}},{"base_weights":[-8.552245E-2,-3.7586093E-1,3.3821094E-1,-4.2228186E-1,8.23048E-1,2.642604E-1,1.3553282E0,-2.0856622E-1,-7.3018396E-1,5.8561146E-1,1.1969813E0,4.8939693E-1,-2.1648245E-1,1.4007292E0,9.7518135E-3,1.7281519E-1,-2.9755136E-1,-8.9592874E-1,-5.3249454E-1,6.813013E-1,-6.56421E-2,1.9105883E-1,5.321784E-2,7.2413784E-1,2.0831671E-1,-6.8404675E-1,1.3380145E-1,6.388509E-1,2.1684559E-1,-7.290668E-2,5.5732127E-2,-8.607501E-2,-1.04984725E-2,-1.12420574E-1,-1.5211512E-1,-5.007618E-2,-1.0242309E-1,6.8310134E-2,1.5509512E-1,6.7831054E-2,1.4932324E-1,1.19546674E-1,9.9894665E-3,-5.852114E-2,-1.3254546E-1,-3.0462382E-2,5.8065396E-2,1.2310386E-2,1.3374843E-1],"categories":[],"categories_nodes":[],"categories_segments":[],"categories_sizes":[],"default_left":[0,0,0,0,0,0,0,0,0,0,0,0,0,0,0,0,0,0,0,0,0,0,0,0,0,0,0,0,0,0,0,0,0,0,0,0,0,0,0,0,0,0,0,0,0,0,0,0,0],"id":6,"left_children":[1,3,5,7,9,11,13,15,17,19,21,23,25,27,-1,29,31,33,35,37,-1,-1,-1,39,41,43,45,47,-1,-1,-1,-1,-1,-1,-1,-1,-1,-1,-1,-1,-1,-1,-1,-1,-1,-1,-1,-1,-1],"loss_changes":[1.4764491E2,3.9974182E1,3.635238E1,4.4997543E1,1.6855907E0,4.9484745E1,1.8326454E0,1.384392E1,8.720993E0,2.0995913E0,1.6092205E-1,2.037078E1,2.4036985E1,1.6012955E-1,0E0,1.0330613E1,2.0700579E1,1.8573532E0,3.6687737E0,9.007015E-1,0E0,0E0,0E0,1.2025856E1,1.18721285E1,3.3381424E0,7.282586E0,4.2719507E-1,0E0,0E0,0E0,0E0,0E0,0E0,0E0,0E0,0E0,0E0,0E0,0E0,0E0,0E0,0E0,0E0,0E0,0E0,0E0,0E0,0E0],"parents":[2147483647,0,0,1,1,2,2,3,3,4,4,5,5,6,6,7,7,8,8,9,9,10,10,11,11,12,12,13,13,15,15,16,16,17,17,18,18,19,19,23,23,24,24,25,25,26,26,27,27],"right_children":[2,4,6,8,10,12,14,16,18,20,22,24,26,28,-1,30,32,34,36,38,-1,-1,-1,40,42,44,46,48,-1,-1,-1,-1,-1,-1,-1,-1,-1,-1,-1,-1,-1,-1,-1,-1,-1,-1,-1,-1,-1],"split_conditions":[4.2E1,3E0,3E0,2E0,1.2761656E5,2E0,6.5E1,5.756894E4,5.481755E4,1.2231439E5,1.8505414E5,1E0,3.934483E4,4.3E1,9.7518135E-3,3.1E1,1E0,1E0,1E0,1.3507702E5,-6.56421E-2,1.9105883E-1,5.321784E-2,4.8E1,5.481755E4,6.28E2,4.7E1,6.490032E4,2.1684559E-1,-7.290668E-2,5.5732127E-2,-8.607501E-2,-1.04984725E-2,-1.12420574E-1,-1.5211512E-1,-5.007618E-2,-1.0242309E-1,6.8310134E-2,1.5509512E-1,6.7831054E-2,1.4932324E-1,1.19546674E-1,9.9894665E-3,-5.852114E-2,-1.3254546E-1,-3.0462382E-2,5.8065396E-2,1.2310386E-2,1.3374843E-1],"split_indices":[3,6,6,6,5,6,3,5,5,5,9,8,5,3,0,3,1,2,2,9,0,0,0,3,5,0,3,5,0,0,0,0,0,0,0,0,0,0,0,0,0,0,0,0,0,0,0,0,0],"split_type":[0,0,0,0,0,0,0,0,0,0,0,0,0,0,0,0,0,0,0,0,0,0,0,0,0,0,0,0,0,0,0,0,0,0,0,0,0,0,0,0,0,0,0,0,0,0,0,0,0],"sum_hessian":[1.1980771E3,7.110113E2,4.8706583E2,6.851312E2,2.5880045E1,4.5522784E2,3.183798E1,4.0541147E2,2.797198E2,1.7398561E1,8.4814825E0,3.1002307E2,1.452048E2,3.0673147E1,1.1648341E0,7.651855E1,3.288929E2,1.5023189E2,1.2948788E2,1.6216219E1,1.1823424E0,7.3035665E0,1.1779162E0,1.6807822E2,1.4194484E2,6.178303E1,8.342177E1,2.5548615E0,2.8118286E1,1.7396845E1,5.9121704E1,1.4785764E2,1.810353E2,7.0365555E1,7.986634E1,5.716545E1,7.232243E1,1.1281293E1,4.934927E0,8.528114E1,8.279707E1,2.6645266E1,1.15299576E2,2.6182568E1,3.5600464E1,3.5888824E1,4.7532948E1,1.2114285E0,1.3434329E0],"tree_param":{"num_deleted":"0","num_feature":"10","num_nodes":"49","size_leaf_vector":"1"}},{"base_weights":[-7.613493E-2,-3.868476E-1,2.4228747E-1,-4.2484313E-1,7.1453935E-1,1.779375E-1,1.1693639E0,-2.318168E-1,-7.0584166E-1,1.0083855E0,3.120313E-1,3.6708286E-1,-2.3625468E-1,1.2037576E0,8.951863E-3,-2.7558321E-2,-4.034793E-1,-8.671722E-1,-4.3648365E-1,1.218033E0,6.0248005E-1,-3.0670142E-1,7.9907566E-1,5.7115644E-1,1.2750089E-1,-6.1714077E-1,4.247328E-2,7.095798E-1,2.0112146E-1,-1.0517139E-2,2.4629737E-1,-5.6944676E-3,-7.2990775E-2,-1.1465709E-1,-1.4492422E-1,-2.5973734E-2,-9.5921144E-2,2.0990948E-1,7.398159E-2,2.6548123E-3,1.321451E-1,-9.776503E-2,4.022397E-2,1.5159148E-1,2.1151159E-2,5.3629007E-2,1.3182363E-1,6.0617425E-2,-1.7226046E-2,-5.7690836E-2,-1.1796998E-1,-3.524237E-2,4.848096E-2,2.6606895E-2,1.8237983E-1],"categories":[],"categories_nodes":[],"categories_segments":[],"categories_sizes":[],"default_left":[0,0,0,0,0,0,0,0,0,0,0,0,0,0,0,0,0,0,0,0,0,0,0,0,0,0,0,0,0,0,0,0,0,0,0,0,0,0,0,0,0,0,0,0,0,0,0,0,0,0,0,0,0,0,0],"id":7,"left_children":[1,3,5,7,9,11,13,15,17,19,21,23,25,27,-1,29,31,33,35,37,39,41,43,45,47,49,51,53,-1,-1,-1,-1,-1,-1,-1,-1,-1,-1,-1,-1,-1,-1,-1,-1,-1,-1,-1,-1,-1,-1,-1,-1,-1,-1,-1],"loss_changes":[1.1505536E2,2.493032E1,3.4063534E1,3.0725357E1,2.0505447E0,4.2263725E1,1.3444214E0,1.1878098E1,9.677567E0,2.1165562E-1,3.2243836E0,1.8016418E1,1.8008785E1,1.4827309E0,0E0,1.1192421E1,5.577175E0,7.238159E-1,4.6303387E0,1.4426994E-1,9.2292356E-1,1.181915E0,6.661768E-1,1.279892E1,1.1541084E1,2.518301E0,7.766377E0,2.4592123E0,0E0,0E0,0E0,0E0,0E0,0E0,0E0,0E0,0E0,0E0,0E0,0E0,0E0,0E0,0E0,0E0,0E0,0E0,0E0,0E0,0E0,0E0,0E0,0E0,0E0,0E0,0E0],"parents":[2147483647,0,0,1,1,2,2,3,3,4,4,5,5,6,6,7,7,8,8,9,9,10,10,11,11,12,12,13,13,15,15,16,16,17,17,18,18,19,19,20,20,21,21,22,22,23,23,24,24,25,25,26,26,27,27],"right_children":[2,4,6,8,10,12,14,16,18,20,22,24,26,28,-1,30,32,34,36,38,40,42,44,46,48,50,52,54,-1,-1,-1,-1,-1,-1,-1,-1,-1,-1,-1,-1,-1,-1,-1,-1,-1,-1,-1,-1,-1,-1,-1,-1,-1,-1,-1],"split_conditions":[4E1,3E0,3E0,2E0,6.53E2,2E0,6.5E1,1E0,9.566882E4,1E0,7.12E2,1E0,3.934483E4,4.3E1,8.951863E-3,1.788278E5,5.481755E4,1.0059898E5,1E0,1.3441731E5,3.934483E4,1.0796436E5,1.3177252E5,4.8E1,1E0,1E0,4.7E1,1.0471994E5,2.0112146E-1,-1.0517139E-2,2.4629737E-1,-5.6944676E-3,-7.2990775E-2,-1.1465709E-1,-1.4492422E-1,-2.5973734E-2,-9.5921144E-2,2.0990948E-1,7.398159E-2,2.6548123E-3,1.321451E-1,-9.776503E-2,4.022397E-2,1.5159148E-1,2.1151159E-2,5.3629007E-2,1.3182363E-1,6.0617425E-2,-1.7226046E-2,-5.7690836E-2,-1.1796998E-1,-3.524237E-2,4.848096E-2,2.6606895E-2,1.8237983E-1],"split_indices":[3,6,6,6,0,6,3,2,5,8,0,8,5,3,0,5,5,9,2,9,5,9,9,3,2,2,3,5,0,0,0,0,0,0,0,0,0,0,0,0,0,0,0,0,0,0,0,0,0,0,0,0,0,0,0],"split_type":[0,0,0,0,0,0,0,0,0,0,0,0,0,0,0,0,0,0,0,0,0,0,0,0,0,0,0,0,0,0,0,0,0,0,0,0,0,0,0,0,0,0,0,0,0,0,0,0,0,0,0,0,0,0,0],"sum_hessian":[1.1609578E3,5.8748364E2,5.734742E2,5.6848627E2,1.899732E1,5.373666E2,3.6107613E1,3.3807642E2,2.3040988E2,1.0110798E1,8.886522E0,3.6898108E2,1.6838548E2,3.4939903E1,1.1677102E0,1.5491092E2,1.831655E2,1.4271318E2,8.76967E1,5.347875E0,4.762923E0,4.0771995E0,4.809323E0,1.9850905E2,1.7047205E2,7.06403E1,9.774519E1,8.927356E0,2.6012547E1,1.5199464E2,2.9162796E0,3.4207382E1,1.4895811E2,7.4290695E1,6.842248E1,3.898162E1,4.8715076E1,3.5331442E0,1.814731E0,1.8795996E0,2.8833232E0,2.464238E0,1.6129615E0,3.2340298E0,1.5752931E0,1.18435295E2,8.007375E1,7.9294945E1,9.117709E1,3.1142998E1,3.94973E1,4.924451E1,4.850068E1,5.0106177E0,3.9167383E0],"tree_param":{"num_deleted":"0","num_feature":"10","num_nodes":"55","size_leaf_vector":"1"}},{"base_weights":[-6.7140974E-2,-3.4630823E-1,2.0960067E-1,-3.8147712E-1,6.521809E-1,1.5243465E-1,1.0841845E0,-2.021211E-1,-6.5862393E-1,9.2414993E-1,2.825455E-1,3.13066E-1,-2.0907176E-1,7.011496E-1,1.2453609E0,-4.0431944E-1,-1.534612E-2,-8.0314124E-1,-3.5005412E-1,1.1178378E0,5.489096E-1,-9.076406E-2,5.5558044E-1,7.047751E-1,2.0955552E-1,-5.645525E-1,3.5960358E-2,1.0118926E0,7.272684E-2,6.890616E-2,1.9214658E-1,1.5680108E-2,-8.707299E-2,5.2927155E-2,-5.8303688E-2,-1.3287382E-1,-9.121736E-2,2.341579E-2,-8.006632E-2,5.5202898E-2,1.9186993E-1,2.3933866E-3,1.2174124E-1,2.517134E-2,1.2038857E-1,1.1395023E-1,-9.611363E-2,-2.6319157E-2,7.112655E-2,-5.146279E-2,-1.0988636E-1,3.0375049E-2,-6.0384426E-2,2.400407E-2,1.755327E-1,-4.4381775E-2,1.1945484E-1],"categories":[],"categories_nodes":[],"categories_segments":[],"categories_sizes":[],"default_left":[0,0,0,0,0,0,0,0,0,0,0,0,0,0,0,0,0,0,0,0,0,0,0,0,0,0,0,0,0,0,0,0,0,0,0,0,0,0,0,0,0,0,0,0,0,0,0,0,0,0,0,0,0,0,0,0,0],"id":8,"left_children":[1,3,5,7,9,11,13,15,17,19,21,23,25,27,29,31,33,35,37,39,41,-1,43,45,47,49,51,53,55,-1,-1,-1,-1,-1,-1,-1,-1,-1,-1,-1,-1,-1,-1,-1,-1,-1,-1,-1,-1,-1,-1,-1,-1,-1,-1,-1,-1],"loss_changes":[8.722135E1,1.9981499E1,2.8187788E1,2.688041E1,1.6980114E0,3.1043718E1,1.26474E0,1.25082855E1,9.220528E0,1.7039776E-1,2.6873186E0,1.4844334E1,1.43678875E1,2.3760862E0,5.7800293E-2,1.432089E1,2.3958946E1,1.7888336E0,6.568084E0,2.730217E-1,7.7628696E-1,0E0,6.258781E-1,6.1638565E0,3.0025887E1,2.2519283E0,7.2712355E0,9.343958E-1,1.6301489E0,0E0,0E0,0E0,0E0,0E0,0E0,0E0,0E0,0E0,0E0,0E0,0E0,0E0,0E0,0E0,0E0,0E0,0E0,0E0,0E0,0E0,0E0,0E0,0E0,0E0,0E0,0E0,0E0],"parents":[2147483647,0,0,1,1,2,2,3,3,4,4,5,5,6,6,7,7,8,8,9,9,10,10,11,11,12,12,13,13,14,14,15,15,16,16,17,17,18,18,19,19,20,20,22,22,23,23,24,24,25,25,26,26,27,27,28,28],"right_children":[2,4,6,8,10,12,14,16,18,20,22,24,26,28,30,32,34,36,38,40,42,-1,44,46,48,50,52,54,56,-1,-1,-1,-1,-1,-1,-1,-1,-1,-1,-1,-1,-1,-1,-1,-1,-1,-1,-1,-1,-1,-1,-1,-1,-1,-1,-1,-1],"split_conditions":[4E1,3E0,3E0,2E0,6.53E2,2E0,3.934483E4,1E0,1.0812239E5,1E0,6.85E2,3.934483E4,3.934483E4,1E0,1.809496E4,5.756894E4,2E0,3.6E1,1E0,3E1,3.934483E4,-9.076406E-2,3.934483E4,6.5E1,1E0,1E0,1.3575695E5,4.2E1,4E0,6.890616E-2,1.9214658E-1,1.5680108E-2,-8.707299E-2,5.2927155E-2,-5.8303688E-2,-1.3287382E-1,-9.121736E-2,2.341579E-2,-8.006632E-2,5.5202898E-2,1.9186993E-1,2.3933866E-3,1.2174124E-1,2.517134E-2,1.2038857E-1,1.1395023E-1,-9.611363E-2,-2.6319157E-2,7.112655E-2,-5.146279E-2,-1.0988636E-1,3.0375049E-2,-6.0384426E-2,2.400407E-2,1.755327E-1,-4.4381775E-2,1.1945484E-1],"split_indices":[3,6,6,6,0,6,5,1,5,8,0,5,5,2,9,5,1,3,7,3,5,0,5,3,1,2,5,3,6,0,0,0,0,0,0,0,0,0,0,0,0,0,0,0,0,0,0,0,0,0,0,0,0,0,0,0,0],"split_type":[0,0,0,0,0,0,0,0,0,0,0,0,0,0,0,0,0,0,0,0,0,0,0,0,0,0,0,0,0,0,0,0,0,0,0,0,0,0,0,0,0,0,0,0,0,0,0,0,0,0,0,0,0,0,0,0,0],"sum_hessian":[1.127034E3,5.609331E2,5.6610095E2,5.4244495E2,1.8488104E1,5.32471E2,3.3629982E1,3.303729E2,2.120721E2,9.78694E0,8.701165E0,3.6875348E2,1.6371751E2,1.1544566E1,2.2085415E1,1.5807729E2,1.7229561E2,1.4333772E2,6.8734375E1,5.149784E0,4.6371555E0,1.7607552E0,6.9404097E0,7.586247E1,2.92891E2,6.6270905E1,9.744662E1,7.3164916E0,4.2280746E0,1.5598671E0,2.0525549E1,4.07574E1,1.17319885E2,8.6773895E1,8.5521706E1,9.817344E1,4.516428E1,1.8344603E1,5.038977E1,1.4926234E0,3.6571608E0,1.8812598E0,2.7558956E0,3.3541772E0,3.5862324E0,7.330721E1,2.555266E0,1.1944253E2,1.7344847E2,2.9901012E1,3.636989E1,7.101511E1,2.643151E1,1.4618422E0,5.854649E0,3.1928382E0,1.0352361E0],"tree_param":{"num_deleted":"0","num_feature":"10","num_nodes":"57","size_leaf_vector":"1"}},{"base_weights":[-5.945884E-2,-2.3061143E-1,3.1198427E-1,-2.6843926E-1,6.767608E-1,5.6224805E-1,6.7176044E-2,-1.0791293E-1,-5.4871553E-1,3.4708157E-1,8.5600185E-1,3.9682257E-1,9.927216E-1,2.0118566E-1,-5.299542E-1,4.916758E-2,-2.974281E-1,-7.461722E-1,-3.5833287E-1,-1.3993843E-1,5.6420046E-1,5.646721E-1,1.7659807E-1,3.379527E-1,1.7622738E-1,1.0398439E0,3.5198715E-1,5.0368875E-1,-7.744397E-2,-4.7944225E-2,-7.076233E-1,-2.4993591E-2,3.532848E-2,-1.0348458E-1,-2.7662894E-2,-8.282694E-2,-1.3747367E-1,-8.527585E-2,-3.0927062E-2,3.614642E-2,-1.12224765E-1,1.6302225E-1,3.8822707E-2,1.2045395E-1,2.7454536E-2,7.512536E-2,-2.0234942E-2,1.179356E-2,1.5985265E-1,1.00935824E-1,-5.4044496E-2,-2.3976E-2,1.0437761E-1,1.1383407E-2,-1.0255137E-1,-1.4221168E-1,6.997375E-2,3.0520674E-2,-1.19170964E-1],"categories":[],"categories_nodes":[],"categories_segments":[],"categories_sizes":[],"default_left":[0,0,0,0,0,0,0,0,0,0,0,0,0,0,0,0,0,0,0,0,0,0,0,0,0,0,0,0,0,0,0,0,0,0,0,0,0,0,0,0,0,0,0,0,0,0,0,0,0,0,0,0,0,0,0,0,0,0,0],"id":9,"left_children":[1,3,5,7,9,11,13,15,17,19,21,23,25,27,29,31,33,35,37,39,41,43,-1,45,-1,47,49,51,53,55,57,-1,-1,-1,-1,-1,-1,-1,-1,-1,-1,-1,-1,-1,-1,-1,-1,-1,-1,-1,-1,-1,-1,-1,-1,-1,-1,-1,-1],"loss_changes":[7.005722E1,2.606826E1,2.1262905E1,3.25471E1,1.5032682E0,1.1839058E1,1.4261337E1,1.3769263E1,9.644768E0,1.3914683E0,1.118907E0,5.36314E0,1.0537376E0,1.2276586E1,2.7661505E0,1.0233448E1,9.166582E0,3.7399445E0,4.237135E0,1.2526599E0,1.1205981E0,9.3691826E-1,0E0,9.180464E0,0E0,9.914551E-1,1.3243475E0,9.004221E0,7.1578054E0,5.016725E0,2.046319E0,0E0,0E0,0E0,0E0,0E0,0E0,0E0,0E0,0E0,0E0,0E0,0E0,0E0,0E0,0E0,0E0,0E0,0E0,0E0,0E0,0E0,0E0,0E0,0E0,0E0,0E0,0E0,0E0],"parents":[2147483647,0,0,1,1,2,2,3,3,4,4,5,5,6,6,7,7,8,8,9,9,10,10,11,11,12,12,13,13,14,14,15,15,16,16,17,17,18,18,19,19,20,20,21,21,23,23,25,25,26,26,27,27,28,28,29,29,30,30],"right_children":[2,4,6,8,10,12,14,16,18,20,22,24,26,28,30,32,34,36,38,40,42,44,-1,46,-1,48,50,52,54,56,58,-1,-1,-1,-1,-1,-1,-1,-1,-1,-1,-1,-1,-1,-1,-1,-1,-1,-1,-1,-1,-1,-1,-1,-1,-1,-1,-1,-1],"split_conditions":[4.5E1,3E0,1E0,2E0,3.6E1,5.4E1,6.1E1,1E0,5.481755E4,8.889005E4,1.0471994E5,3E0,6.5E1,1E0,3E0,1E0,3.1E1,1E0,3.5E1,7.55036E4,1E0,1E0,1.7659807E-1,2E0,1.7622738E-1,3.1482E3,1.4199889E5,4.7E1,1.3730188E5,6.092003E4,1.388973E4,-2.4993591E-2,3.532848E-2,-1.0348458E-1,-2.7662894E-2,-8.282694E-2,-1.3747367E-1,-8.527585E-2,-3.0927062E-2,3.614642E-2,-1.12224765E-1,1.6302225E-1,3.8822707E-2,1.2045395E-1,2.7454536E-2,7.512536E-2,-2.0234942E-2,1.179356E-2,1.5985265E-1,1.00935824E-1,-5.4044496E-2,-2.3976E-2,1.0437761E-1,1.1383407E-2,-1.0255137E-1,-1.4221168E-1,6.997375E-2,3.0520674E-2,-1.19170964E-1],"split_indices":[3,6,8,6,3,3,3,8,5,9,5,6,3,2,4,1,3,2,3,9,7,2,0,6,0,9,9,3,5,9,9,0,0,0,0,0,0,0,0,0,0,0,0,0,0,0,0,0,0,0,0,0,0,0,0,0,0,0,0],"split_type":[0,0,0,0,0,0,0,0,0,0,0,0,0,0,0,0,0,0,0,0,0,0,0,0,0,0,0,0,0,0,0,0,0,0,0,0,0,0,0,0,0,0,0,0,0,0,0,0,0,0,0,0,0,0,0,0,0,0,0],"sum_hessian":[1.0998569E3,7.531853E2,3.4667163E2,7.237181E2,2.946723E1,1.707845E2,1.7588712E2,4.6104358E2,2.6267453E2,1.1412515E1,1.8054716E1,1.2476191E2,4.602259E1,1.4419055E2,3.1696562E1,2.524991E2,2.0854448E2,1.275087E2,1.3516582E2,3.6286209E0,7.7838936E0,1.091541E1,7.139306E0,1.1731925E2,7.442661E0,4.2289547E1,3.7330425E0,6.874626E1,7.54443E1,8.87873E0,2.2817833E1,1.1705755E2,1.3544154E2,4.5482647E1,1.6306183E2,6.1594646E1,6.5914055E1,5.5611526E1,7.955429E1,2.6025348E0,1.0260861E0,1.9270984E0,5.8567953E0,6.0393825E0,4.876027E0,8.721664E1,3.0102615E1,1.212939E0,4.1076607E1,2.6116517E0,1.1213908E0,1.5476082E1,5.3270184E1,6.0912582E1,1.4531715E1,2.92237E0,5.95636E0,1.8689444E0,2.0948887E1],"tree_param":{"num_deleted":"0","num_feature":"10","num_nodes":"59","size_leaf_vector":"1"}},{"base_weights":[-5.2525233E-2,-3.4950045E-1,1.1500836E-1,-2.1186249E-1,-5.678353E-1,6.851027E-2,9.6846455E-1,-3.6366533E-2,-4.1859043E-1,-6.582205E-1,3.6903968E-1,1.9258197E-1,-2.0385753E-1,6.22738E-1,1.7209268E-1,3.316748E-1,-1.2941007E-1,-4.5944247E-1,1.1360424E0,-7.9318464E-1,-3.7753347E-1,6.555052E-1,1.3626487E-2,3.3403313E-1,-2.5742283E-1,-5.3164434E-1,1.4236128E-2,9.4160914E-1,9.4149776E-2,-6.887779E-2,8.750522E-2,-6.272924E-2,1.5226721E-2,-8.512547E-2,4.8816844E-4,2.7707878E-1,-1.628328E-2,-1.3318522E-2,-1.23816565E-1,2.1389067E-2,-8.617054E-2,3.3399183E-2,1.326459E-1,-7.311468E-2,6.930271E-2,6.814105E-3,1.1451434E-1,6.033442E-2,-9.0273395E-2,-4.3837614E-2,-1.1057225E-1,4.1064568E-2,-3.3344552E-2,5.3546038E-2,1.8656975E-1,1.2145736E-1,-6.712366E-2],"categories":[],"categories_nodes":[],"categories_segments":[],"categories_sizes":[],"default_left":[0,0,0,0,0,0,0,0,0,0,0,0,0,0,0,0,0,0,0,0,0,0,0,0,0,0,0,0,0,0,0,0,0,0,0,0,0,0,0,0,0,0,0,0,0,0,0,0,0,0,0,0,0,0,0,0,0],"id":10,"left_children":[1,3,5,7,9,11,13,15,17,19,21,23,25,27,-1,29,31,33,35,37,39,41,43,45,47,49,51,53,55,-1,-1,-1,-1,-1,-1,-1,-1,-1,-1,-1,-1,-1,-1,-1,-1,-1,-1,-1,-1,-1,-1,-1,-1,-1,-1,-1,-1],"loss_changes":[5.3432625E1,1.1518394E1,2.7190533E1,8.660834E0,1.2873234E1,2.2087093E1,1.474762E0,4.509572E0,7.48934E0,4.8673477E0,1.3924643E0,2.8651234E1,1.4639438E1,2.3147326E0,0E0,5.5630713E0,7.0335255E0,5.382204E0,2.9416187E0,1.998951E0,4.8137455E0,5.557842E-1,1.8347703E0,4.2332066E1,2.4752775E1,3.8087902E0,7.665218E0,1.1076465E0,2.872426E0,0E0,0E0,0E0,0E0,0E0,0E0,0E0,0E0,0E0,0E0,0E0,0E0,0E0,0E0,0E0,0E0,0E0,0E0,0E0,0E0,0E0,0E0,0E0,0E0,0E0,0E0,0E0,0E0],"parents":[2147483647,0,0,1,1,2,2,3,3,4,4,5,5,6,6,7,7,8,8,9,9,10,10,11,11,12,12,13,13,15,15,16,16,17,17,18,18,19,19,20,20,21,21,22,22,23,23,24,24,25,25,26,26,27,27,28,28],"right_children":[2,4,6,8,10,12,14,16,18,20,22,24,26,28,-1,30,32,34,36,38,40,42,44,46,48,50,52,54,56,-1,-1,-1,-1,-1,-1,-1,-1,-1,-1,-1,-1,-1,-1,-1,-1,-1,-1,-1,-1,-1,-1,-1,-1,-1,-1,-1,-1],"split_conditions":[3.7E1,2E0,3E0,1E0,3E0,2E0,3.934483E4,5.756894E4,1.788278E5,1.0812239E5,6.53E2,2E0,3.934483E4,1E0,1.7209268E-1,2.9E1,1E0,1.6185498E5,1E0,4.79E2,1E0,1.0197916E5,7.12E2,1E0,8.21821E4,1E0,1E0,8.297069E4,4E0,-6.887779E-2,8.750522E-2,-6.272924E-2,1.5226721E-2,-8.512547E-2,4.8816844E-4,2.7707878E-1,-1.628328E-2,-1.3318522E-2,-1.23816565E-1,2.1389067E-2,-8.617054E-2,3.3399183E-2,1.326459E-1,-7.311468E-2,6.930271E-2,6.814105E-3,1.1451434E-1,6.033442E-2,-9.0273395E-2,-4.3837614E-2,-1.1057225E-1,4.1064568E-2,-3.3344552E-2,5.3546038E-2,1.8656975E-1,1.2145736E-1,-6.712366E-2],"split_indices":[3,6,6,8,6,6,5,5,5,5,0,1,5,2,0,3,1,9,2,0,7,5,0,1,5,2,2,9,4,0,0,0,0,0,0,0,0,0,0,0,0,0,0,0,0,0,0,0,0,0,0,0,0,0,0,0,0],"split_type":[0,0,0,0,0,0,0,0,0,0,0,0,0,0,0,0,0,0,0,0,0,0,0,0,0,0,0,0,0,0,0,0,0,0,0,0,0,0,0,0,0,0,0,0,0,0,0,0,0,0,0,0,0,0,0,0,0],"sum_hessian":[1.0721428E3,3.8629617E2,6.858467E2,2.3814209E2,1.481541E2,6.5143536E2,3.4411297E1,1.2943648E2,1.08705605E2,1.3538976E2,1.2764332E1,4.4776016E2,2.0367523E2,1.3259046E1,2.1152252E1,2.5601786E1,1.03834694E2,1.0660865E2,2.0969522E0,9.019499E1,4.519477E1,6.600188E0,6.164144E0,3.40871E2,1.0688916E2,8.079923E1,1.2287599E2,7.782738E0,5.476308E0,5.981762E0,1.9620024E1,4.5776608E1,5.805809E1,8.624098E1,2.0367674E1,1.0263431E0,1.0706091E0,4.114089E0,8.60809E1,1.2488223E1,3.270655E1,2.964718E0,3.6354697E0,2.8699908E0,3.2941532E0,2.0451683E2,1.3635417E2,3.6606445E1,7.0282715E1,3.8441025E1,4.2358208E1,5.8515034E1,6.436096E1,3.3952832E0,4.387455E0,2.1461203E0,3.3301876E0],"tree_param":{"num_deleted":"0","num_feature":"10","num_nodes":"57","size_leaf_vector":"1"}},{"base_weights":[-4.6353772E-2,-1.8750684E-1,2.5057405E-1,-2.1151457E-2,-3.3991894E-1,4.746097E-1,3.933835E-2,-2.3580675E-1,1.2391582E-1,2.656636E-1,-3.5249355E-1,3.2259056E-1,8.8719344E-1,1.5061527E-1,-4.807987E-1,-2.8961438E-1,1.0363023E0,2.2965704E-1,-2.1938886E-1,-3.7920675E-1,4.181452E-1,5.303618E-1,1.5184109E-1,9.330354E-1,3.0614495E-1,3.8949355E-1,-7.668587E-2,-5.3663556E-2,-6.4729565E-1,-7.89935E-2,-1.0270018E-2,2.1413885E-1,-2.9521273E-2,2.073092E-2,1.21140696E-1,-1.1326282E-1,-5.296875E-4,-3.7132535E-2,-9.5163845E-2,3.0420668E-2,1.4442076E-1,8.5825674E-2,-1.0565745E-1,-6.0224137E-3,7.208404E-2,8.811908E-2,1.5894805E-1,8.942783E-2,-4.9272228E-2,8.1980504E-2,-2.6771985E-2,8.941096E-3,-9.433438E-2,-1.3482909E-1,5.7213828E-2,2.8070338E-2,-1.0998803E-1],"categories":[],"categories_nodes":[],"categories_segments":[],"categories_sizes":[],"default_left":[0,0,0,0,0,0,0,0,0,0,0,0,0,0,0,0,0,0,0,0,0,0,0,0,0,0,0,0,0,0,0,0,0,0,0,0,0,0,0,0,0,0,0,0,0,0,0,0,0,0,0,0,0,0,0,0,0],"id":11,"left_children":[1,3,5,7,9,11,13,15,17,-1,19,21,23,25,27,29,31,33,35,37,39,41,43,45,47,49,51,53,55,-1,-1,-1,-1,-1,-1,-1,-1,-1,-1,-1,-1,-1,-1,-1,-1,-1,-1,-1,-1,-1,-1,-1,-1,-1,-1,-1,-1],"loss_changes":[4.406316E1,1.8055098E1,1.601528E1,1.0668948E1,1.0491356E1,1.002087E1,1.022889E1,9.755396E0,7.475641E0,0E0,7.7824783E0,4.2354984E0,8.777008E-1,7.919992E0,2.181518E0,6.9513226E0,3.0911474E0,8.179398E0,5.626114E0,1.1887577E1,1.3157389E0,3.2154036E0,4.3221645E0,1.1274338E0,1.0576661E0,6.431985E0,5.7044883E0,3.9580288E0,1.7390528E0,0E0,0E0,0E0,0E0,0E0,0E0,0E0,0E0,0E0,0E0,0E0,0E0,0E0,0E0,0E0,0E0,0E0,0E0,0E0,0E0,0E0,0E0,0E0,0E0,0E0,0E0,0E0,0E0],"parents":[2147483647,0,0,1,1,2,2,3,3,4,4,5,5,6,6,7,7,8,8,10,10,11,11,12,12,13,13,14,14,15,15,16,16,17,17,18,18,19,19,20,20,21,21,22,22,23,23,24,24,25,25,26,26,27,27,28,28],"right_children":[2,4,6,8,10,12,14,16,18,-1,20,22,24,26,28,30,32,34,36,38,40,42,44,46,48,50,52,54,56,-1,-1,-1,-1,-1,-1,-1,-1,-1,-1,-1,-1,-1,-1,-1,-1,-1,-1,-1,-1,-1,-1,-1,-1,-1,-1,-1,-1],"split_conditions":[4.5E1,1E0,1E0,3.5E1,4.16E2,5.4E1,6.1E1,1.723818E5,1.3306062E5,2.656636E-1,3E0,5E0,6.5E1,1E0,3E0,1E0,2E0,1.2292475E5,1E0,2E0,1.6347102E5,1.788278E5,1.3827502E5,5.6E1,1.4199889E5,2E0,1.3730188E5,6.092003E4,1.388973E4,-7.89935E-2,-1.0270018E-2,2.1413885E-1,-2.9521273E-2,2.073092E-2,1.21140696E-1,-1.1326282E-1,-5.296875E-4,-3.7132535E-2,-9.5163845E-2,3.0420668E-2,1.4442076E-1,8.5825674E-2,-1.0565745E-1,-6.0224137E-3,7.208404E-2,8.811908E-2,1.5894805E-1,8.942783E-2,-4.9272228E-2,8.1980504E-2,-2.6771985E-2,8.941096E-3,-9.433438E-2,-1.3482909E-1,5.7213828E-2,2.8070338E-2,-1.0998803E-1],"split_indices":[3,2,8,3,0,3,3,5,5,0,6,4,3,2,4,1,6,5,7,6,9,5,9,3,9,1,5,9,9,0,0,0,0,0,0,0,0,0,0,0,0,0,0,0,0,0,0,0,0,0,0,0,0,0,0,0,0],"split_type":[0,0,0,0,0,0,0,0,0,0,0,0,0,0,0,0,0,0,0,0,0,0,0,0,0,0,0,0,0,0,0,0,0,0,0,0,0,0,0,0,0,0,0,0,0,0,0,0,0,0,0,0,0,0,0,0,0],"sum_hessian":[1.0491978E3,7.113879E2,3.378099E2,3.4067993E2,3.7070795E2,1.6333292E2,1.7447697E2,1.3713559E2,2.0354433E2,1.3670294E0,3.693409E2,1.20657684E2,4.267523E1,1.4431335E2,3.0163633E1,1.3231143E2,4.824169E0,1.5586684E2,4.7677483E1,3.5745804E2,1.1882881E1,5.3478237E1,6.717944E1,3.8993084E1,3.682145E0,7.001681E1,7.429654E1,8.830914E0,2.1332722E1,6.319866E1,6.911276E1,3.5423853E0,1.2817838E0,1.356427E2,2.0224144E1,1.2976203E1,3.470128E1,2.3711201E2,1.2034602E2,9.499455E0,2.3834252E0,5.2245766E1,1.2324715E0,4.296394E1,2.4215502E1,1.1968229E1,2.7024857E1,2.5687385E0,1.1134067E0,5.4880295E1,1.5136514E1,6.0304577E1,1.39919615E1,2.6388338E0,6.192079E0,1.8823963E0,1.9450325E1],"tree_param":{"num_deleted":"0","num_feature":"10","num_nodes":"57","size_leaf_vector":"1"}},{"base_weights":[-4.0405072E-2,-1.997867E-1,1.6280678E-1,-6.434416E-2,-3.5532016E-1,1.1951404E-1,1.000139E0,6.7208685E-2,-2.0106764E-1,-3.77774E-1,5.961595E-1,2.2777483E-1,-1.3162619E-1,1.0490199E0,6.9943625E-3,1.3028316E-1,-4.6922284E-1,-3.6016053E-1,-3.0052684E-2,-5.1537156E-1,-1.9813731E-1,1.038002E0,-2.6030862E-1,6.0950917E-1,1.2704378E-1,-4.7829083E-1,7.006424E-2,4.8334554E-2,1.6643387E-1,-1.2546724E-2,5.7809882E-2,6.9484904E-2,-1.14908494E-1,-8.825087E-3,-8.002212E-2,6.446325E-2,-3.3599444E-2,-9.940658E-2,-5.7121713E-2,-7.5737187E-3,-9.369379E-2,2.4682961E-1,2.7212331E-2,-8.9905985E-2,3.131212E-2,9.9809326E-2,-8.8752985E-2,-3.600325E-2,5.60816E-2,-2.0905802E-2,-1.0934774E-1,9.558443E-2,-6.238095E-3],"categories":[],"categories_nodes":[],"categories_segments":[],"categories_sizes":[],"default_left":[0,0,0,0,0,0,0,0,0,0,0,0,0,0,0,0,0,0,0,0,0,0,0,0,0,0,0,0,0,0,0,0,0,0,0,0,0,0,0,0,0,0,0,0,0,0,0,0,0,0,0,0,0],"id":12,"left_children":[1,3,5,7,9,11,13,15,17,19,21,23,25,27,-1,29,31,33,35,37,39,41,43,45,47,49,51,-1,-1,-1,-1,-1,-1,-1,-1,-1,-1,-1,-1,-1,-1,-1,-1,-1,-1,-1,-1,-1,-1,-1,-1,-1,-1],"loss_changes":[3.3419334E1,1.2156734E1,1.6325947E1,5.5940604E0,5.970154E0,1.1788969E1,9.842529E-1,5.436593E0,4.13538E0,6.406399E0,2.763025E0,1.1557662E1,9.1867895E0,5.681896E-1,0E0,7.8333826E0,5.041478E0,4.0870247E0,6.743123E0,2.6913872E0,7.262511E0,2.067246E0,6.088112E-1,4.6169662E0,2.1895626E1,4.0004034E0,5.3226104E0,0E0,0E0,0E0,0E0,0E0,0E0,0E0,0E0,0E0,0E0,0E0,0E0,0E0,0E0,0E0,0E0,0E0,0E0,0E0,0E0,0E0,0E0,0E0,0E0,0E0,0E0],"parents":[2147483647,0,0,1,1,2,2,3,3,4,4,5,5,6,6,7,7,8,8,9,9,10,10,11,11,12,12,13,13,15,15,16,16,17,17,18,18,19,19,20,20,21,21,22,22,23,23,24,24,25,25,26,26],"right_children":[2,4,6,8,10,12,14,16,18,20,22,24,26,28,-1,30,32,34,36,38,40,42,44,46,48,50,52,-1,-1,-1,-1,-1,-1,-1,-1,-1,-1,-1,-1,-1,-1,-1,-1,-1,-1,-1,-1,-1,-1,-1,-1,-1,-1],"split_conditions":[4.2E1,1E0,3E0,1E0,1.788278E5,2E0,6.5E1,7.81E2,1.0812239E5,3.6E1,3.6E1,4.540885E4,3.934483E4,4.3E1,6.9943625E-3,6.5E2,4.877846E4,6.14E2,1.2255005E5,1E0,2E0,6E0,1E0,6.5E1,1E0,6.28E2,2E0,4.8334554E-2,1.6643387E-1,-1.2546724E-2,5.7809882E-2,6.9484904E-2,-1.14908494E-1,-8.825087E-3,-8.002212E-2,6.446325E-2,-3.3599444E-2,-9.940658E-2,-5.7121713E-2,-7.5737187E-3,-9.369379E-2,2.4682961E-1,2.7212331E-2,-8.9905985E-2,3.131212E-2,9.9809326E-2,-8.8752985E-2,-3.600325E-2,5.60816E-2,-2.0905802E-2,-1.0934774E-1,9.558443E-2,-6.238095E-3],"split_indices":[3,8,6,2,5,6,3,0,5,3,3,5,5,3,0,0,9,0,5,1,1,4,1,3,1,0,4,0,0,0,0,0,0,0,0,0,0,0,0,0,0,0,0,0,0,0,0,0,0,0,0,0,0],"split_type":[0,0,0,0,0,0,0,0,0,0,0,0,0,0,0,0,0,0,0,0,0,0,0,0,0,0,0,0,0,0,0,0,0,0,0,0,0,0,0,0,0,0,0,0,0,0,0,0,0,0,0,0,0],"sum_hessian":[1.0298313E3,5.77168E2,4.526633E2,3.0926544E2,2.679026E2,4.314963E2,2.1166998E1,1.5787215E2,1.5139328E2,2.6231522E2,5.5873823E0,3.015836E2,1.2991272E2,2.0039522E1,1.1274757E0,1.4193977E2,1.5932376E1,7.78575E1,7.353578E1,1.4747998E2,1.1483522E2,3.546055E0,2.041327E0,6.1911285E1,2.396723E2,4.727877E1,8.263395E1,2.0270386E0,1.8012484E1,7.756753E1,6.437225E1,3.7117932E0,1.2220582E1,2.8919258E1,4.893824E1,2.1454618E1,5.2081165E1,6.852373E1,7.895626E1,8.613466E1,2.8700565E1,1.53578E0,2.0102751E0,1.0235845E0,1.0177426E0,5.958511E1,2.3261755E0,9.637738E1,1.4329492E2,2.0763748E1,2.6515022E1,1.2817346E1,6.9816605E1],"tree_param":{"num_deleted":"0","num_feature":"10","num_nodes":"53","size_leaf_vector":"1"}},{"base_weights":[-3.554497E-2,-1.3817725E-1,2.1433128E-1,-1.6815777E-1,5.735319E-1,4.2356604E-1,3.2542843E-2,-5.2382078E-2,-4.0526724E-1,3.3731213E-1,8.2991767E-1,2.944132E-1,8.8881016E-1,1.8770322E-1,-3.261506E-1,2.8325403E-1,-6.4039804E-2,-5.6003696E-1,-1.3778563E-1,1.5229572E-1,1.3242775E-1,2.011566E-1,1.4835964E-1,8.293276E-2,4.5326775E-1,9.740667E-1,1.953844E-1,5.4836684E-1,2.20209E-2,-6.613167E-1,-1.488696E-1,1.3080252E-2,-3.0435657E-2,-1.11685224E-1,-5.940981E-2,1.3318823E-1,-3.0973723E-2,-5.715094E-2,5.707749E-2,1.2478854E-1,-1.0315605E-1,-1.5751245E-2,8.964895E-2,1.431068E-1,5.343758E-2,4.08601E-2,1.574256E-1,-8.648897E-2,1.3265164E-1,1.4283854E-1,2.782278E-2,5.1094465E-2,-3.553682E-2,-3.5644285E-2,-1.3273287E-1,5.5151484E-3,-1.1278427E-1],"categories":[],"categories_nodes":[],"categories_segments":[],"categories_sizes":[],"default_left":[0,0,0,0,0,0,0,0,0,0,0,0,0,0,0,0,0,0,0,0,0,0,0,0,0,0,0,0,0,0,0,0,0,0,0,0,0,0,0,0,0,0,0,0,0,0,0,0,0,0,0,0,0,0,0,0,0],"id":13,"left_children":[1,3,5,7,9,11,13,15,17,19,21,23,25,27,29,-1,31,33,35,37,-1,39,-1,41,43,45,47,49,51,53,55,-1,-1,-1,-1,-1,-1,-1,-1,-1,-1,-1,-1,-1,-1,-1,-1,-1,-1,-1,-1,-1,-1,-1,-1,-1,-1],"loss_changes":[2.6030651E1,1.5444249E1,1.1228965E1,1.8947456E1,1.4946766E0,7.9902954E0,8.924045E0,1.0651238E1,9.301704E0,1.5749028E0,1.1385555E0,3.623808E0,1.5445175E0,6.66833E0,2.780394E0,0E0,9.754751E0,4.0376434E0,6.1287937E0,1.8312719E0,0E0,2.7896285E0,0E0,4.703681E0,2.6729937E0,1.0840416E0,2.8840432E0,4.9749565E0,6.486412E0,1.3499036E0,3.71949E0,0E0,0E0,0E0,0E0,0E0,0E0,0E0,0E0,0E0,0E0,0E0,0E0,0E0,0E0,0E0,0E0,0E0,0E0,0E0,0E0,0E0,0E0,0E0,0E0,0E0,0E0],"parents":[2147483647,0,0,1,1,2,2,3,3,4,4,5,5,6,6,7,7,8,8,9,9,10,10,11,11,12,12,13,13,14,14,16,16,17,17,18,18,19,19,21,21,23,23,24,24,25,25,26,26,27,27,28,28,29,29,30,30],"right_children":[2,4,6,8,10,12,14,16,18,20,22,24,26,28,30,-1,32,34,36,38,-1,40,-1,42,44,46,48,50,52,54,56,-1,-1,-1,-1,-1,-1,-1,-1,-1,-1,-1,-1,-1,-1,-1,-1,-1,-1,-1,-1,-1,-1,-1,-1,-1,-1],"split_conditions":[4.6E1,3E0,1E0,2E0,1.0471994E5,5.6E1,5.8E1,4.16E2,1.0812239E5,1.6347102E5,3.2E1,1E0,1.7368039E5,1E0,6.193121E4,2.8325403E-1,1E0,3.6E1,1.1099379E5,3.6E1,1.3242775E-1,1.5615327E5,1.4835964E-1,1.4955883E5,2E0,5.07E2,1.8342177E5,6.37E2,5E0,2.37664E4,1.3763869E5,1.3080252E-2,-3.0435657E-2,-1.11685224E-1,-5.940981E-2,1.3318823E-1,-3.0973723E-2,-5.715094E-2,5.707749E-2,1.2478854E-1,-1.0315605E-1,-1.5751245E-2,8.964895E-2,1.431068E-1,5.343758E-2,4.08601E-2,1.574256E-1,-8.648897E-2,1.3265164E-1,1.4283854E-1,2.782278E-2,5.1094465E-2,-3.553682E-2,-3.5644285E-2,-1.3273287E-1,5.5151484E-3,-1.1278427E-1],"split_indices":[3,6,8,6,5,3,3,0,5,9,3,1,9,7,9,0,2,3,5,3,0,9,0,9,4,0,9,0,4,9,5,0,0,0,0,0,0,0,0,0,0,0,0,0,0,0,0,0,0,0,0,0,0,0,0,0,0],"split_type":[0,0,0,0,0,0,0,0,0,0,0,0,0,0,0,0,0,0,0,0,0,0,0,0,0,0,0,0,0,0,0,0,0,0,0,0,0,0,0,0,0,0,0,0,0,0,0,0,0,0,0,0,0,0,0,0,0],"sum_hessian":[1.0128687E3,7.182905E2,2.945782E2,6.899887E2,2.8301838E1,1.363324E2,1.5824577E2,4.6443533E2,2.2555334E2,1.5935439E1,1.23664E1,1.0798761E2,2.8344788E1,1.1079554E2,4.7450233E1,1.8119023E0,4.6262344E2,1.421874E2,8.336596E1,1.2854932E1,3.0805068E0,2.9551349E0,9.411264E0,4.697398E1,6.1013634E1,2.4880964E1,3.4638247E0,3.4148983E1,7.664656E1,1.5470843E1,3.197939E1,2.2162125E2,2.4100218E2,6.523363E1,7.6953766E1,4.485066E0,7.88809E1,3.6518648E0,9.203068E0,1.7659898E0,1.1891451E0,3.4993042E1,1.1980937E1,8.468367E0,5.254527E1,2.8629277E0,2.2018036E1,1.7104106E0,1.753414E0,1.539267E1,1.8756311E1,3.422198E1,4.2424576E1,6.056325E0,9.414517E0,2.5170004E1,6.809386E0],"tree_param":{"num_deleted":"0","num_feature":"10","num_nodes":"57","size_leaf_vector":"1"}},{"base_weights":[-3.032385E-2,-2.779534E-1,5.859942E-2,-1.6401199E-1,-4.8565453E-1,2.5238067E-2,7.7477074E-1,1.8663709E-1,-2.4613015E-1,-5.613617E-1,2.5274014E-1,1.0415564E-1,-2.2846378E-1,4.3044043E-1,9.9540067E-1,-3.062948E-1,5.800051E-1,-6.0827017E-1,-9.659806E-2,-6.4299816E-1,-2.533518E-2,-3.5180652E-1,4.864499E-1,-7.2865136E-2,3.5887116E-1,-2.6911527E-1,1.607945E0,9.059899E-1,1.8749832E-1,1.0291594E0,3.5035837E-2,2.2707805E-2,-8.309828E-2,-1.8291321E-3,2.0084955E-1,-1.1345947E-1,-3.184589E-2,-6.0621288E-2,1.916255E-2,-1.6928682E-2,-1.0662899E-1,-6.991783E-2,6.004565E-2,-8.782793E-3,-6.959434E-2,1.9999512E-2,1.3735914E-1,2.246873E-2,-4.30627E-2,-1.178044E-1,7.1291305E-2,-2.0579626E-3,-8.460502E-2,2.4200054E-2,3.188847E-1,4.232028E-2,1.5111938E-1,-6.935537E-2,7.126513E-2,4.3146648E-2,1.5993437E-1],"categories":[],"categories_nodes":[],"categories_segments":[],"categories_sizes":[],"default_left":[0,0,0,0,0,0,0,0,0,0,0,0,0,0,0,0,0,0,0,0,0,0,0,0,0,0,0,0,0,0,0,0,0,0,0,0,0,0,0,0,0,0,0,0,0,0,0,0,0,0,0,0,0,0,0,0,0,0,0,0,0],"id":14,"left_children":[1,3,5,7,9,11,13,15,17,19,21,23,25,27,29,31,33,35,37,39,41,43,45,47,49,51,53,55,57,59,-1,-1,-1,-1,-1,-1,-1,-1,-1,-1,-1,-1,-1,-1,-1,-1,-1,-1,-1,-1,-1,-1,-1,-1,-1,-1,-1,-1,-1,-1,-1],"loss_changes":[2.1945337E1,6.1515484E0,1.750718E1,4.9852715E0,5.3275394E0,1.4077929E1,2.049448E0,6.5993576E0,7.4909716E0,3.6790848E0,1.4873923E0,2.4198517E1,1.2889171E1,1.5052841E0,2.5128555E-1,1.824378E0,8.450615E0,2.2180815E0,6.941897E0,2.5548668E0,2.4759555E0,7.734862E-2,9.599925E-1,1.516855E1,2.9672894E1,1.235252E1,2.4720726E0,9.602547E-3,2.2490432E0,1.884346E-1,0E0,0E0,0E0,0E0,0E0,0E0,0E0,0E0,0E0,0E0,0E0,0E0,0E0,0E0,0E0,0E0,0E0,0E0,0E0,0E0,0E0,0E0,0E0,0E0,0E0,0E0,0E0,0E0,0E0,0E0,0E0],"parents":[2147483647,0,0,1,1,2,2,3,3,4,4,5,5,6,6,7,7,8,8,9,9,10,10,11,11,12,12,13,13,14,14,15,15,16,16,17,17,18,18,19,19,20,20,21,21,22,22,23,23,24,24,25,25,26,26,27,27,28,28,29,29],"right_children":[2,4,6,8,10,12,14,16,18,20,22,24,26,28,30,32,34,36,38,40,42,44,46,48,50,52,54,56,58,60,-1,-1,-1,-1,-1,-1,-1,-1,-1,-1,-1,-1,-1,-1,-1,-1,-1,-1,-1,-1,-1,-1,-1,-1,-1,-1,-1,-1,-1,-1,-1],"split_conditions":[3.5E1,2E0,3E0,5.756894E4,3E0,2E0,3.934483E4,3.1E1,1.0506998E5,1.421882E5,8.658737E4,1E0,1.8634797E5,3E0,1.886709E5,7.90841E4,1.1004388E5,3.3E1,1E0,2.5E1,1E0,6.11E2,6E0,1E0,8.73477E4,9.947276E4,6.17E2,6.06E2,4.1E1,3.6E1,3.5035837E-2,2.2707805E-2,-8.309828E-2,-1.8291321E-3,2.0084955E-1,-1.1345947E-1,-3.184589E-2,-6.0621288E-2,1.916255E-2,-1.6928682E-2,-1.0662899E-1,-6.991783E-2,6.004565E-2,-8.782793E-3,-6.959434E-2,1.9999512E-2,1.3735914E-1,2.246873E-2,-4.30627E-2,-1.178044E-1,7.1291305E-2,-2.0579626E-3,-8.460502E-2,2.4200054E-2,3.188847E-1,4.232028E-2,1.5111938E-1,-6.935537E-2,7.126513E-2,4.3146648E-2,1.5993437E-1],"split_indices":[3,6,6,5,6,1,5,3,5,5,9,1,5,4,9,9,9,3,1,3,8,0,4,2,5,5,0,0,3,3,0,0,0,0,0,0,0,0,0,0,0,0,0,0,0,0,0,0,0,0,0,0,0,0,0,0,0,0,0,0,0],"split_type":[0,0,0,0,0,0,0,0,0,0,0,0,0,0,0,0,0,0,0,0,0,0,0,0,0,0,0,0,0,0,0,0,0,0,0,0,0,0,0,0,0,0,0,0,0,0,0,0,0,0,0,0,0,0,0,0,0,0,0,0,0],"sum_hessian":[9.948684E2,2.6230035E2,7.32568E2,1.7053651E2,9.176384E1,7.009509E2,3.1617104E1,3.211802E1,1.384185E2,8.3447754E1,8.316091E0,5.350923E2,1.6585861E2,1.3499621E1,1.8117481E1,1.435324E1,1.7764778E1,3.9555153E1,9.886334E1,7.224528E1,1.1202473E1,2.1776805E0,6.13841E0,3.1611465E2,2.1897766E2,1.6310158E2,2.7570257E0,3.6417668E0,9.857854E0,1.7012695E1,1.1047873E0,5.1767097E0,9.17653E0,1.0531536E1,7.233243E0,2.8123987E1,1.1431168E1,4.1361835E1,5.7501507E1,8.500661E0,6.3744617E1,5.4566126E0,5.74586E0,1.0235237E0,1.1541567E0,4.0870404E0,2.0513694E0,1.5515233E2,1.6096233E2,1.9689209E1,1.9928845E2,8.796848E1,7.51331E1,1.072653E0,1.6843725E0,1.038355E0,2.6034117E0,2.837827E0,7.020027E0,1.2270588E0,1.5785636E1],"tree_param":{"num_deleted":"0","num_feature":"10","num_nodes":"61","size_leaf_vector":"1"}},{"base_weights":[-2.6485004E-2,-5.309629E-2,6.2350243E-1,4.722792E-2,-2.7780768E-1,3.7834838E-1,9.439218E-1,3.3356267E-1,-2.9899077E-2,-5.4025334E-1,-9.7587675E-2,1.9708072E-1,7.693447E-1,1.5284044E-1,-3.7329847E-3,-2.7407116E-1,4.032795E-1,-2.666503E-1,1.2725727E-1,-3.5148358E-1,-7.310551E-1,-1.8511164E-1,3.5275212E-1,3.9873183E-1,-1.3246742E-1,8.746039E-1,1.2804554E-2,-9.104484E-2,8.678439E-3,4.6762764E-2,1.430352E-1,-5.2007377E-2,1.2643965E-1,6.340923E-2,-5.7702083E-2,7.4678086E-2,-5.9784845E-2,-1.20441675E-1,-6.324538E-3,-7.3201633E-3,-6.369174E-2,1.6900431E-2,2.850576E-1,1.0446138E-1,-2.4094746E-2,-9.617896E-2,5.482383E-2,4.3109592E-2,1.4761019E-1],"categories":[],"categories_nodes":[],"categories_segments":[],"categories_sizes":[],"default_left":[0,0,0,0,0,0,0,0,0,0,0,0,0,0,0,0,0,0,0,0,0,0,0,0,0,0,0,0,0,0,0,0,0,0,0,0,0,0,0,0,0,0,0,0,0,0,0,0,0],"id":15,"left_children":[1,3,5,7,9,11,13,15,17,19,21,23,25,-1,-1,27,29,31,33,35,37,39,41,43,45,47,-1,-1,-1,-1,-1,-1,-1,-1,-1,-1,-1,-1,-1,-1,-1,-1,-1,-1,-1,-1,-1,-1,-1],"loss_changes":[1.7031359E1,2.1317148E1,2.6852026E0,1.4456831E1,1.3749994E1,1.5218127E0,1.1968031E0,5.9945946E0,1.9242949E1,4.0143204E0,6.93291E0,1.2142005E0,4.3899536E-1,0E0,0E0,1.680594E0,5.998911E0,1.861979E1,4.7201527E1,2.6592302E0,2.841051E0,4.76326E0,1.0448442E1,1.9587196E0,2.1051495E0,1.07661724E-1,0E0,0E0,0E0,0E0,0E0,0E0,0E0,0E0,0E0,0E0,0E0,0E0,0E0,0E0,0E0,0E0,0E0,0E0,0E0,0E0,0E0,0E0,0E0],"parents":[2147483647,0,0,1,1,2,2,3,3,4,4,5,5,6,6,7,7,8,8,9,9,10,10,11,11,12,12,15,15,16,16,17,17,18,18,19,19,20,20,21,21,22,22,23,23,24,24,25,25],"right_children":[2,4,6,8,10,12,14,16,18,20,22,24,26,-1,-1,28,30,32,34,36,38,40,42,44,46,48,-1,-1,-1,-1,-1,-1,-1,-1,-1,-1,-1,-1,-1,-1,-1,-1,-1,-1,-1,-1,-1,-1,-1],"split_conditions":[3E0,2E0,4.3E1,5.756894E4,4.540885E4,1.2761656E5,6.5E1,3.1E1,1E0,1E0,2E0,6.58E2,1.8603572E5,1.5284044E-1,-3.7329847E-3,5E0,1.6898977E5,1.6852238E5,2E0,1E0,5.8E1,1.2982858E5,1.677956E5,4E1,7.12E2,6.424231E4,1.2804554E-2,-9.104484E-2,8.678439E-3,4.6762764E-2,1.430352E-1,-5.2007377E-2,1.2643965E-1,6.340923E-2,-5.7702083E-2,7.4678086E-2,-5.9784845E-2,-1.20441675E-1,-6.324538E-3,-7.3201633E-3,-6.369174E-2,1.6900431E-2,2.850576E-1,1.0446138E-1,-2.4094746E-2,-9.617896E-2,5.482383E-2,4.3109592E-2,1.4761019E-1],"split_indices":[6,6,3,5,5,5,3,3,1,2,1,0,9,0,0,4,9,5,1,4,3,5,5,3,0,9,0,0,0,0,0,0,0,0,0,0,0,0,0,0,0,0,0,0,0,0,0,0,0],"split_type":[0,0,0,0,0,0,0,0,0,0,0,0,0,0,0,0,0,0,0,0,0,0,0,0,0,0,0,0,0,0,0,0,0,0,0,0,0,0,0,0,0,0,0,0,0,0,0,0,0],"sum_hessian":[9.8172833E2,9.4399817E2,3.7730137E1,6.5317346E2,2.9082474E2,2.2611094E1,1.5119042E1,1.3789862E2,5.1527484E2,1.1758851E2,1.7323622E2,1.6476542E1,6.134552E0,1.39844885E1,1.134554E0,1.3891628E1,1.2400699E2,2.053E2,3.0997485E2,6.053767E1,5.705084E1,1.4553944E2,2.7696775E1,1.0091561E1,6.38498E0,5.074873E0,1.0596789E0,6.522009E0,7.369619E0,1.07665794E2,1.6341194E1,1.9212416E2,1.3175835E1,1.9665015E2,1.1332469E2,2.6767225E0,5.7860947E1,5.150995E1,5.5408926E0,9.351785E1,5.2021587E1,2.4905943E1,2.790833E0,6.4265375E0,3.6650238E0,3.0160656E0,3.3689146E0,1.3670409E0,3.707832E0],"tree_param":{"num_deleted":"0","num_feature":"10","num_nodes":"49","size_leaf_vector":"1"}},{"base_weights":[-2.298943E-2,1.00611106E-1,-1.5924543E-1,4.1857496E-2,6.3801587E-1,-6.900197E-3,-2.9941595E-1,1.2556443E0,2.9006125E-2,8.677777E-1,3.8834065E-1,-1.2472991E-1,2.6201507E-1,-3.115672E-1,1.7885289E-1,2.522386E-1,1.7695094E-2,6.2491507E-3,5.909525E-1,9.090257E-1,3.4072913E-2,6.734554E-1,7.4454546E-2,-2.7521217E-1,5.1883962E-2,4.0793395E-1,-3.4748012E-1,-2.0793909E-1,-5.0939035E-1,1.2106574E-2,-2.743914E-2,4.849526E-2,1.3648018E-1,1.04809545E-1,1.8415327E-1,-3.6454E-2,1.23182654E-1,-4.9358644E-2,1.0761229E-1,-3.8832186E-3,-1.0871506E-1,4.007843E-2,-3.921536E-2,8.119988E-2,-2.1679182E-2,8.818538E-3,-1.07250355E-1,-4.0355947E-2,5.527265E-2,-8.7933004E-2,3.4276385E-2],"categories":[],"categories_nodes":[],"categories_segments":[],"categories_sizes":[],"default_left":[0,0,0,0,0,0,0,0,0,0,0,0,0,0,0,0,0,0,0,0,0,0,0,0,0,0,0,0,0,0,0,0,0,0,0,0,0,0,0,0,0,0,0,0,0,0,0,0,0,0,0],"id":16,"left_children":[1,3,5,7,9,11,13,15,17,19,21,23,25,27,-1,-1,-1,29,31,33,-1,35,37,39,41,43,45,47,49,-1,-1,-1,-1,-1,-1,-1,-1,-1,-1,-1,-1,-1,-1,-1,-1,-1,-1,-1,-1,-1,-1],"loss_changes":[1.631958E1,1.6020094E1,9.839034E0,7.126621E0,2.5322647E0,7.062502E0,4.7217712E0,2.1215444E0,5.820266E0,4.60392E-1,2.2569742E0,4.1321993E0,6.181972E0,4.7904034E0,0E0,0E0,0E0,6.1944785E0,1.2179003E0,7.0877075E-1,0E0,2.0121493E0,3.7113051E0,9.37602E0,4.9352345E0,4.150543E0,2.0814953E0,5.6789513E0,4.749668E0,0E0,0E0,0E0,0E0,0E0,0E0,0E0,0E0,0E0,0E0,0E0,0E0,0E0,0E0,0E0,0E0,0E0,0E0,0E0,0E0,0E0,0E0],"parents":[2147483647,0,0,1,1,2,2,3,3,4,4,5,5,6,6,7,7,8,8,9,9,10,10,11,11,12,12,13,13,17,17,18,18,19,19,21,21,22,22,23,23,24,24,25,25,26,26,27,27,28,28],"right_children":[2,4,6,8,10,12,14,16,18,20,22,24,26,28,-1,-1,-1,30,32,34,-1,36,38,40,42,44,46,48,50,-1,-1,-1,-1,-1,-1,-1,-1,-1,-1,-1,-1,-1,-1,-1,-1,-1,-1,-1,-1,-1,-1],"split_conditions":[1E0,5.2E1,1E0,4.29E2,6.39E2,4.7E1,1.9239052E5,7E0,3E0,1.7678039E5,1.1099379E5,1.116059E5,6.1E1,2E0,1.7885289E-1,2.522386E-1,1.7695094E-2,2E0,1.0471994E5,1.2405297E5,3.4072913E-2,6.61E2,1.3655644E5,7.480099E4,6.79E2,2E0,6.46E2,1.7738369E5,3E0,1.2106574E-2,-2.743914E-2,4.849526E-2,1.3648018E-1,1.04809545E-1,1.8415327E-1,-3.6454E-2,1.23182654E-1,-4.9358644E-2,1.0761229E-1,-3.8832186E-3,-1.0871506E-1,4.007843E-2,-3.921536E-2,8.119988E-2,-2.1679182E-2,8.818538E-3,-1.07250355E-1,-4.0355947E-2,5.527265E-2,-8.7933004E-2,3.4276385E-2],"split_indices":[8,3,2,0,0,3,5,4,6,9,5,9,3,6,0,0,0,6,5,9,0,0,5,9,0,1,0,9,6,0,0,0,0,0,0,0,0,0,0,0,0,0,0,0,0,0,0,0,0,0,0],"split_type":[0,0,0,0,0,0,0,0,0,0,0,0,0,0,0,0,0,0,0,0,0,0,0,0,0,0,0,0,0,0,0,0,0,0,0,0,0,0,0,0,0,0,0,0,0,0,0,0,0,0,0],"sum_hessian":[9.670692E2,5.0722076E2,4.5984848E2,4.5820395E2,4.901682E1,2.208574E2,2.3899106E2,3.7873893E0,4.5441656E2,2.4237139E1,2.477968E1,1.5394153E2,6.691588E1,2.3784483E2,1.1462257E0,2.407813E0,1.3795763E0,4.3770218E2,1.6714373E1,2.2377356E1,1.8597832E0,1.238467E1,1.239501E1,8.2818504E1,7.112303E1,5.4256954E1,1.2658922E1,1.5742838E2,8.0416466E1,3.1449E2,1.2321219E2,1.0182462E1,6.531912E0,1.5404284E1,6.9730725E0,1.6300039E0,1.0754666E1,7.9155493E0,4.4794607E0,5.3953415E1,2.886509E1,4.2242355E1,2.8880676E1,4.3720306E1,1.0536648E1,6.4114947E0,6.247427E0,1.4282253E2,1.4605846E1,7.301929E1,7.397172E0],"tree_param":{"num_deleted":"0","num_feature":"10","num_nodes":"51","size_leaf_vector":"1"}},{"base_weights":[-1.9214438E-2,-2.3035023E-1,5.4167755E-2,-2.4600658E-1,7.399427E-1,2.9786294E-2,6.5062517E-1,-1.301588E-1,-3.8445687E-1,2.093192E-1,-1.01765115E-2,1.4194824E-1,-9.152984E-2,3.209856E-1,8.992345E-1,-2.455602E-2,-3.8001755E-1,-7.7104014E-1,-3.0106696E-1,8.931521E-2,6.317639E-1,-7.2602723E-3,-3.7106416E-1,7.9394865E-1,9.071638E-2,3.0555248E-2,9.388878E-1,1.8681228E-2,-4.0236287E-2,1.4869972E-1,-7.028459E-2,-1.8603258E-2,-1.4173292E-1,-6.1482675E-2,1.665388E-2,1.0783724E-2,1.8053985E-1,1.37685E-1,6.923086E-2,1.8984115E-2,-4.35085E-2,1.163589E-1,-6.286281E-2,1.3592054E-1,3.9514206E-2,6.250496E-2,-5.496283E-2,1.4674771E-1,4.4135343E-2],"categories":[],"categories_nodes":[],"categories_segments":[],"categories_sizes":[],"default_left":[0,0,0,0,0,0,0,0,0,0,0,0,0,0,0,0,0,0,0,0,0,0,0,0,0,0,0,0,0,0,0,0,0,0,0,0,0,0,0,0,0,0,0,0,0,0,0,0,0],"id":17,"left_children":[1,3,5,7,9,11,13,15,17,-1,-1,19,21,23,25,27,29,31,33,35,37,39,41,43,45,-1,47,-1,-1,-1,-1,-1,-1,-1,-1,-1,-1,-1,-1,-1,-1,-1,-1,-1,-1,-1,-1,-1,-1],"loss_changes":[1.4814523E1,3.9281254E0,1.0302439E1,3.8543777E0,2.3002875E0,9.305836E0,1.9917336E0,3.5275586E0,3.3263626E0,0E0,0E0,9.10214E0,7.7400312E0,1.4002528E0,2.3093033E-1,3.4956255E0,5.2917447E0,2.0138474E0,4.1907644E0,6.1640625E0,1.2472601E0,9.633023E0,4.516842E0,1.7079115E-2,1.6757895E0,0E0,7.321262E-2,0E0,0E0,0E0,0E0,0E0,0E0,0E0,0E0,0E0,0E0,0E0,0E0,0E0,0E0,0E0,0E0,0E0,0E0,0E0,0E0,0E0,0E0],"parents":[2147483647,0,0,1,1,2,2,3,3,4,4,5,5,6,6,7,7,8,8,11,11,12,12,13,13,14,14,15,15,16,16,17,17,18,18,19,19,20,20,21,21,22,22,23,23,24,24,26,26],"right_children":[2,4,6,8,10,12,14,16,18,-1,-1,20,22,24,26,28,30,32,34,36,38,40,42,44,46,-1,48,-1,-1,-1,-1,-1,-1,-1,-1,-1,-1,-1,-1,-1,-1,-1,-1,-1,-1,-1,-1,-1,-1],"split_conditions":[3.5E1,1.8944372E5,3E0,1E0,6E0,1E0,3.934483E4,2E0,2E0,2.093192E-1,-1.01765115E-2,5.4E1,2E0,3E0,3.6E1,1.2214113E5,4.79E2,1E0,1.6107692E5,1.8634797E5,5.65852E4,2E0,4.79E2,1.116059E5,1E0,3.0555248E-2,1.8603572E5,1.8681228E-2,-4.0236287E-2,1.4869972E-1,-7.028459E-2,-1.8603258E-2,-1.4173292E-1,-6.1482675E-2,1.665388E-2,1.0783724E-2,1.8053985E-1,1.37685E-1,6.923086E-2,1.8984115E-2,-4.35085E-2,1.163589E-1,-6.286281E-2,1.3592054E-1,3.9514206E-2,6.250496E-2,-5.496283E-2,1.4674771E-1,4.4135343E-2],"split_indices":[3,5,6,8,4,8,5,6,4,0,0,3,1,4,3,9,0,4,9,5,9,6,0,9,2,0,9,0,0,0,0,0,0,0,0,0,0,0,0,0,0,0,0,0,0,0,0,0,0],"split_type":[0,0,0,0,0,0,0,0,0,0,0,0,0,0,0,0,0,0,0,0,0,0,0,0,0,0,0,0,0,0,0,0,0,0,0,0,0,0,0,0,0,0,0,0,0,0,0,0,0],"sum_hessian":[9.543647E2,2.4559575E2,7.08769E2,2.4243042E2,3.165319E0,6.8194305E2,2.6825928E1,1.3304535E2,1.0938508E2,1.3457386E0,1.8195804E0,3.5425192E2,3.276911E2,1.2518433E1,1.4307495E1,9.429138E1,3.8753967E1,1.7945623E1,9.143946E1,3.20947E2,3.3304943E1,2.5257483E2,7.511628E1,3.297531E0,9.2209015E0,1.1027062E0,1.3204789E1,5.8802437E1,3.548894E1,1.7321366E0,3.702183E1,4.1634674E0,1.3782155E1,7.234211E1,1.9097345E1,3.1705383E2,3.8931572E0,1.0784562E1,2.252038E1,1.7182066E2,8.075416E1,2.409982E0,7.27063E1,2.1375027E0,1.1600282E0,5.4342146E0,3.786687E0,1.19559145E1,1.2488747E0],"tree_param":{"num_deleted":"0","num_feature":"10","num_nodes":"49","size_leaf_vector":"1"}},{"base_weights":[-1.5950218E-2,9.579808E-2,-1.2868017E-1,4.244834E-2,3.8622192E-1,1.8929224E-1,-1.3980761E-1,1.1498898E0,3.2117262E-2,1.0052141E0,2.800408E-1,-2.7296585E-1,-2.4221957E-2,5.8255557E-2,2.0055088E-1,9.113596E-2,-1.5687922E-1,6.41711E-1,2.0165332E-1,5.6959057E-1,1.0206578E-1,-1.0539547E-1,-4.1837937E-1,2.2598495E-1,-1.0575962E-1,-1.9443762E-2,2.7292017E-2,-3.7691638E-2,5.5309255E-2,1.5730184E-1,-7.652292E-2,-3.6785195E-3,1.0162616E-1,4.2603105E-2,-4.5581073E-2,7.6777595E-3,-6.296021E-2,-8.4856994E-2,1.998556E-2,-1.27361E-2,7.042054E-2,-2.029827E-2,1.0095591E-1],"categories":[],"categories_nodes":[],"categories_segments":[],"categories_sizes":[],"default_left":[0,0,0,0,0,0,0,0,0,0,0,0,0,0,0,0,0,0,0,0,0,0,0,0,0,0,0,0,0,0,0,0,0,0,0,0,0,0,0,0,0,0,0],"id":18,"left_children":[1,3,5,7,9,-1,11,13,15,17,19,21,23,-1,-1,25,27,29,-1,31,33,35,37,39,41,-1,-1,-1,-1,-1,-1,-1,-1,-1,-1,-1,-1,-1,-1,-1,-1,-1,-1],"loss_changes":[1.1897793E1,7.333661E0,7.4509425E0,4.5610604E0,4.5489674E0,0E0,7.185316E0,5.932331E-3,4.4670944E0,4.1633987E-1,3.2461247E0,5.244398E0,5.149533E0,0E0,0E0,6.134794E0,4.8242035E0,3.7793326E0,0E0,1.5675898E0,3.1094542E0,5.050333E0,9.491768E0,4.738406E0,4.4693775E0,0E0,0E0,0E0,0E0,0E0,0E0,0E0,0E0,0E0,0E0,0E0,0E0,0E0,0E0,0E0,0E0,0E0,0E0],"parents":[2147483647,0,0,1,1,2,2,3,3,4,4,6,6,7,7,8,8,9,9,10,10,11,11,12,12,15,15,16,16,17,17,19,19,20,20,21,21,22,22,23,23,24,24],"right_children":[2,4,6,8,10,-1,12,14,16,18,20,22,24,-1,-1,26,28,30,-1,32,34,36,38,40,42,-1,-1,-1,-1,-1,-1,-1,-1,-1,-1,-1,-1,-1,-1,-1,-1,-1,-1],"split_conditions":[1E0,5.1E1,4.16E2,4.29E2,5.2E1,1.8929224E-1,4E1,9.814861E4,1.3306062E5,9.151071E4,1E0,9.207501E4,3E0,5.8255557E-2,2.0055088E-1,3.5E1,1.6990292E5,6.960848E4,2.0165332E-1,5.19E2,6.1E1,6.95E2,1.7738369E5,1E0,1.723818E5,-1.9443762E-2,2.7292017E-2,-3.7691638E-2,5.5309255E-2,1.5730184E-1,-7.652292E-2,-3.6785195E-3,1.0162616E-1,4.2603105E-2,-4.5581073E-2,7.6777595E-3,-6.296021E-2,-8.4856994E-2,1.998556E-2,-1.27361E-2,7.042054E-2,-2.029827E-2,1.0095591E-1],"split_indices":[2,3,0,0,3,0,3,5,5,9,8,9,4,0,0,3,5,9,0,0,3,0,9,1,5,0,0,0,0,0,0,0,0,0,0,0,0,0,0,0,0,0,0],"split_type":[0,0,0,0,0,0,0,0,0,0,0,0,0,0,0,0,0,0,0,0,0,0,0,0,0,0,0,0,0,0,0,0,0,0,0,0,0,0,0,0,0,0,0],"sum_hessian":[9.4248706E2,4.733797E2,4.6910733E2,4.0088486E2,7.249484E1,2.8315556E0,4.662758E2,2.6857116E0,3.9819913E2,9.375069E0,6.3119774E1,2.1603511E2,2.5024066E2,1.1363964E0,1.5493152E0,3.0383664E2,9.43625E1,5.920955E0,3.454114E0,2.3190487E1,3.9929287E1,1.011721E2,1.1486302E2,6.1069855E1,1.8917082E2,8.843173E1,2.154049E2,8.0437904E1,1.3924598E1,4.4413514E0,1.4796039E0,3.6836607E0,1.9506826E1,2.7778448E1,1.2150838E1,6.809124E1,3.3080853E1,9.063052E1,2.4232498E1,2.7108221E1,3.396163E1,1.8304877E2,6.1220436E0],"tree_param":{"num_deleted":"0","num_feature":"10","num_nodes":"43","size_leaf_vector":"1"}},{"base_weights":[-1.3123616E-2,-3.3034243E-2,5.1704437E-1,3.874827E-2,-2.0441303E-1,2.9451543E-1,8.587099E-1,2.8077224E-1,-2.7503354E-2,-4.6783602E-1,-3.5229433E-2,1.3085346E-1,6.86987E-1,1.4201576E-1,-6.9679E-3,1.7091921E-1,5.792666E-1,-2.409176E-1,1.12303436E-1,-2.9685077E-1,-6.6108304E-1,-1.1643193E-1,3.6420125E-1,2.5668537E-2,1.1602954E-1,7.8921556E-1,1.2472382E-2,-1.06149964E-1,3.3788577E-2,1.0313502E-1,-7.023659E-2,-4.631079E-2,9.1680855E-2,5.233663E-2,-4.8063535E-2,-9.985991E-2,-2.3710903E-2,-3.5027165E-2,-1.17800504E-1,-9.940593E-3,-1.08002305E-1,2.564714E-2,2.3535489E-1,3.1593654E-2,-5.942449E-2,2.902397E-2,1.3728768E-1],"categories":[],"categories_nodes":[],"categories_segments":[],"categories_sizes":[],"default_left":[0,0,0,0,0,0,0,0,0,0,0,0,0,0,0,0,0,0,0,0,0,0,0,0,0,0,0,0,0,0,0,0,0,0,0,0,0,0,0,0,0,0,0,0,0,0,0],"id":19,"left_children":[1,3,5,7,9,11,13,15,17,19,21,23,25,-1,-1,27,29,31,33,35,37,39,41,43,-1,45,-1,-1,-1,-1,-1,-1,-1,-1,-1,-1,-1,-1,-1,-1,-1,-1,-1,-1,-1,-1,-1],"loss_changes":[9.895273E0,1.1114899E1,2.3269577E0,1.0224433E1,1.1868975E1,1.3277558E0,1.0691643E0,4.3940773E0,1.4979668E1,3.2472687E0,5.344627E0,1.1165531E0,3.2078838E-1,0E0,0E0,5.008916E0,4.456292E0,1.1670484E1,3.1183262E1,2.818242E0,2.372425E0,4.088438E0,6.2176886E0,1.2912515E0,0E0,2.160101E-1,0E0,0E0,0E0,0E0,0E0,0E0,0E0,0E0,0E0,0E0,0E0,0E0,0E0,0E0,0E0,0E0,0E0,0E0,0E0,0E0,0E0],"parents":[2147483647,0,0,1,1,2,2,3,3,4,4,5,5,6,6,7,7,8,8,9,9,10,10,11,11,12,12,15,15,16,16,17,17,18,18,19,19,20,20,21,21,22,22,23,23,25,25],"right_children":[2,4,6,8,10,12,14,16,18,20,22,24,26,-1,-1,28,30,32,34,36,38,40,42,44,-1,46,-1,-1,-1,-1,-1,-1,-1,-1,-1,-1,-1,-1,-1,-1,-1,-1,-1,-1,-1,-1,-1],"split_conditions":[3E0,2E0,4.3E1,5.756894E4,4.540885E4,1.2761656E5,6.5E1,4.7E1,1E0,1E0,2E0,4E0,1.8603572E5,1.4201576E-1,-6.9679E-3,1.24052E4,6.3E1,1.6852238E5,2E0,5.85E2,4.502623E4,7.93E2,1.7440036E5,4E1,1.1602954E-1,6.424231E4,1.2472382E-2,-1.06149964E-1,3.3788577E-2,1.0313502E-1,-7.023659E-2,-4.631079E-2,9.1680855E-2,5.233663E-2,-4.8063535E-2,-9.985991E-2,-2.3710903E-2,-3.5027165E-2,-1.17800504E-1,-9.940593E-3,-1.08002305E-1,2.564714E-2,2.3535489E-1,3.1593654E-2,-5.942449E-2,2.902397E-2,1.3728768E-1],"split_indices":[6,6,3,5,5,5,3,3,1,2,1,6,9,0,0,9,3,5,1,0,9,0,5,3,0,9,0,0,0,0,0,0,0,0,0,0,0,0,0,0,0,0,0,0,0,0,0],"split_type":[0,0,0,0,0,0,0,0,0,0,0,0,0,0,0,0,0,0,0,0,0,0,0,0,0,0,0,0,0,0,0,0,0,0,0,0,0,0,0,0,0,0,0,0,0,0,0],"sum_hessian":[9.347915E2,9.0185956E2,3.2931934E1,6.3617126E2,2.6568832E2,2.1070549E1,1.1861384E1,1.3602394E2,5.001473E2,1.0321492E2,1.6247342E2,1.58108E1,5.259749E0,1.0767831E1,1.0935538E0,1.0058052E2,3.5443417E1,1.9767476E2,3.0247256E2,5.610726E1,4.7107655E1,1.3561249E2,2.6860918E1,1.4480724E1,1.3300751E0,4.23566E0,1.0240887E0,5.1579905E0,9.542253E1,3.243377E1,3.009647E0,1.8369226E2,1.3982492E1,1.9567477E2,1.06797775E2,1.4299933E1,4.1807327E1,1.1255553E1,3.5852104E1,1.262317E2,9.380799E0,2.4132648E1,2.7282705E0,1.0414908E1,4.065816E0,1.1823525E0,3.0533075E0],"tree_param":{"num_deleted":"0","num_feature":"10","num_nodes":"47","size_leaf_vector":"1"}},{"base_weights":[-1.15200365E-2,8.019241E-2,-1.1499244E-1,4.9475588E-2,6.744504E-1,-2.8725532E-1,-3.552469E-2,1.0084138E0,3.8704835E-2,7.6516473E-1,1.8757507E-2,-3.2434383E-1,7.317643E-1,3.60881E-2,-2.827718E-1,-5.7477388E-3,1.9533944E-1,2.1196129E-2,5.130157E-1,7.531578E-2,8.513261E-1,-1.05976485E-1,1.16762474E-1,-1.8843806E-1,-4.5105594E-1,1.7867784E-1,-1.2941946E-2,1.3390046E-1,-3.2346871E-1,7.36101E-1,-3.313874E-1,1.153235E-2,-1.9471461E-2,3.9419096E-2,1.2642272E-1,-9.657787E-2,1.0828888E-1,1.3782248E-1,-2.8394754E-3,-5.4164827E-2,3.9754685E-2,-5.2193653E-2,-1.13553055E-1,-6.977707E-3,6.1867513E-2,1.9621484E-2,-7.302266E-2,1.4269201E-1,2.3934515E-2,-3.4345385E-2,-1.2206567E-1],"categories":[],"categories_nodes":[],"categories_segments":[],"categories_sizes":[],"default_left":[0,0,0,0,0,0,0,0,0,0,0,0,0,0,0,0,0,0,0,0,0,0,0,0,0,0,0,0,0,0,0,0,0,0,0,0,0,0,0,0,0,0,0,0,0,0,0,0,0,0,0],"id":20,"left_children":[1,3,5,7,9,11,13,15,17,19,21,23,25,27,29,-1,-1,31,33,35,37,-1,-1,39,41,-1,-1,43,45,47,49,-1,-1,-1,-1,-1,-1,-1,-1,-1,-1,-1,-1,-1,-1,-1,-1,-1,-1,-1,-1],"loss_changes":[8.781002E0,8.922063E0,5.941076E0,4.79031E0,1.4151907E0,5.418868E0,5.2979174E0,1.6350303E0,3.8376415E0,1.1892977E0,2.7240636E0,2.2050009E0,2.027678E0,8.218516E0,3.5717888E0,0E0,0E0,3.7769072E0,1.1364102E0,2.0637631E0,1.1127338E0,0E0,0E0,5.253769E0,1.8847294E0,0E0,0E0,9.238512E0,3.7743554E0,2.6630807E-1,3.0158138E0,0E0,0E0,0E0,0E0,0E0,0E0,0E0,0E0,0E0,0E0,0E0,0E0,0E0,0E0,0E0,0E0,0E0,0E0,0E0,0E0],"parents":[2147483647,0,0,1,1,2,2,3,3,4,4,5,5,6,6,7,7,8,8,9,9,10,10,11,11,12,12,13,13,14,14,17,17,18,18,19,19,20,20,23,23,24,24,27,27,28,28,29,29,30,30],"right_children":[2,4,6,8,10,12,14,16,18,20,22,24,26,28,30,-1,-1,32,34,36,38,-1,-1,40,42,-1,-1,44,46,48,50,-1,-1,-1,-1,-1,-1,-1,-1,-1,-1,-1,-1,-1,-1,-1,-1,-1,-1,-1,-1],"split_conditions":[1E0,5.6E1,3.7E1,4.29E2,1.7368039E5,1.788278E5,2E0,3.934483E4,3E0,5.07E2,1.8342177E5,6.5E2,1E0,1.3685523E5,4.79E2,-5.7477388E-3,1.9533944E-1,2E0,1.0471994E5,8.960281E4,6.9E1,-1.05976485E-1,1.16762474E-1,2E0,2E0,1.7867784E-1,-1.2941946E-2,1E0,4.7349E4,4.52E2,1.6185498E5,1.153235E-2,-1.9471461E-2,3.9419096E-2,1.2642272E-1,-9.657787E-2,1.0828888E-1,1.3782248E-1,-2.8394754E-3,-5.4164827E-2,3.9754685E-2,-5.2193653E-2,-1.13553055E-1,-6.977707E-3,6.1867513E-2,1.9621484E-2,-7.302266E-2,1.4269201E-1,2.3934515E-2,-3.4345385E-2,-1.2206567E-1],"split_indices":[8,3,3,0,9,5,1,5,6,0,9,0,1,5,0,0,0,6,5,9,3,0,0,1,1,0,0,1,9,0,9,0,0,0,0,0,0,0,0,0,0,0,0,0,0,0,0,0,0,0,0],"split_type":[0,0,0,0,0,0,0,0,0,0,0,0,0,0,0,0,0,0,0,0,0,0,0,0,0,0,0,0,0,0,0,0,0,0,0,0,0,0,0,0,0,0,0,0,0,0,0,0,0,0,0],"sum_hessian":[9.2334674E2,4.8960864E2,4.3373813E2,4.6657492E2,2.3033712E1,1.3609947E2,2.9763864E2,4.1535335E0,4.624214E2,2.0087652E1,2.9460597E0,1.3197769E2,4.1217823E0,2.3145418E2,6.618447E1,1.1010469E0,3.0524867E0,4.4696677E2,1.5454638E1,2.4384437E0,1.7649208E1,1.5429382E0,1.4031215E0,6.487876E1,6.709892E1,2.3473496E0,1.7744329E0,1.8244908E2,4.90051E1,2.370154E0,6.381432E1,3.2690527E2,1.20061485E2,9.809199E0,5.645438E0,1.1564686E0,1.281975E0,1.6327196E1,1.3220117E0,4.713541E1,1.7743353E1,5.178621E1,1.5312716E1,1.11234634E2,7.121444E1,1.301346E1,3.599164E1,1.2526453E0,1.1175085E0,5.385472E1,9.9595995E0],"tree_param":{"num_deleted":"0","num_feature":"10","num_nodes":"51","size_leaf_vector":"1"}},{"base_weights":[-9.609766E-3,8.384825E-2,-1.0531651E-1,6.3078925E-2,5.829055E-1,9.525655E-2,-1.752455E-1,7.889347E-2,-5.5289626E-1,2.8708282E-1,1.4189105E-1,-2.5493193E-1,3.0258086E-1,-1.8858328E-1,9.485759E-1,3.8334068E-2,3.0514243E-1,2.0304388E-1,-7.52825E-1,3.5535596E-2,5.576694E-1,-2.4933856E-2,-4.7484496E-1,-1.8941653E-1,4.6938366E-1,-7.067915E-1,-1.6359477E-1,1.1855594E-3,2.0607522E-1,1.4720115E-2,-2.319277E-2,1.3203308E-1,3.0834964E-2,4.945023E-2,-2.1105674E-3,-1.6047394E-1,1.3225289E-2,-9.1576055E-2,4.129036E-2,1.223758E-1,-3.0278182E-2,-5.4734796E-2,7.607775E-2,4.186527E-3,-1.12313814E-1,1.2924871E-1,-5.693048E-2,8.947976E-2,-5.837169E-2,-1.24747984E-1,-3.9143145E-2,-4.3154996E-2,-9.587749E-3],"categories":[],"categories_nodes":[],"categories_segments":[],"categories_sizes":[],"default_left":[0,0,0,0,0,0,0,0,0,0,0,0,0,0,0,0,0,0,0,0,0,0,0,0,0,0,0,0,0,0,0,0,0,0,0,0,0,0,0,0,0,0,0,0,0,0,0,0,0,0,0,0,0],"id":21,"left_children":[1,3,5,7,9,11,13,15,17,19,-1,21,23,25,27,29,31,33,35,37,39,41,43,45,47,49,51,-1,-1,-1,-1,-1,-1,-1,-1,-1,-1,-1,-1,-1,-1,-1,-1,-1,-1,-1,-1,-1,-1,-1,-1,-1,-1],"loss_changes":[8.19945E0,4.771119E0,6.368381E0,4.3925805E0,1.7057347E0,8.623763E0,5.2173414E0,3.9905756E0,1.8606617E0,7.6842433E-1,0E0,2.2297928E0,6.1945763E0,4.196847E0,1.632622E0,4.295811E0,3.607493E0,9.1267526E-2,2.5333753E0,1.2629691E0,1.2453353E0,4.2948246E0,3.133284E0,4.233652E0,6.328658E0,6.190567E-1,3.9278774E0,0E0,0E0,0E0,0E0,0E0,0E0,0E0,0E0,0E0,0E0,0E0,0E0,0E0,0E0,0E0,0E0,0E0,0E0,0E0,0E0,0E0,0E0,0E0,0E0,0E0,0E0],"parents":[2147483647,0,0,1,1,2,2,3,3,4,4,5,5,6,6,7,7,8,8,9,9,11,11,12,12,13,13,14,14,15,15,16,16,17,17,18,18,19,19,20,20,21,21,22,22,23,23,24,24,25,25,26,26],"right_children":[2,4,6,8,10,12,14,16,18,20,-1,22,24,26,28,30,32,34,36,38,40,42,44,46,48,50,52,-1,-1,-1,-1,-1,-1,-1,-1,-1,-1,-1,-1,-1,-1,-1,-1,-1,-1,-1,-1,-1,-1,-1,-1,-1,-1],"split_conditions":[1E0,3E0,5.82E2,8.5E2,4.2E1,3.8E1,1.9239052E5,5.1E1,2.283513E4,1.0197916E5,1.4189105E-1,1.0256646E5,6.317644E4,5.92E2,6.41E2,1.3306062E5,5.2E1,4.1E1,1.554072E5,5.99E2,1.7066102E5,5.45E2,5.24E2,4.52E2,5.7E1,2E0,1E0,1.1855594E-3,2.0607522E-1,1.4720115E-2,-2.319277E-2,1.3203308E-1,3.0834964E-2,4.945023E-2,-2.1105674E-3,-1.6047394E-1,1.3225289E-2,-9.1576055E-2,4.129036E-2,1.223758E-1,-3.0278182E-2,-5.4734796E-2,7.607775E-2,4.186527E-3,-1.12313814E-1,1.2924871E-1,-5.693048E-2,8.947976E-2,-5.837169E-2,-1.24747984E-1,-3.9143145E-2,-4.3154996E-2,-9.587749E-3],"split_indices":[2,6,0,0,3,3,5,3,9,5,0,9,5,0,0,5,3,3,9,0,9,0,0,0,3,6,1,0,0,0,0,0,0,0,0,0,0,0,0,0,0,0,0,0,0,0,0,0,0,0,0,0,0],"split_type":[0,0,0,0,0,0,0,0,0,0,0,0,0,0,0,0,0,0,0,0,0,0,0,0,0,0,0,0,0,0,0,0,0,0,0,0,0,0,0,0,0,0,0,0,0,0,0,0,0,0,0,0,0],"sum_hessian":[9.147093E2,4.6285422E2,4.5185507E2,4.4544257E2,1.7411644E1,1.16717926E2,3.3513715E2,4.3514264E2,1.0299928E1,1.0580666E1,6.830979E0,4.3318928E1,7.3398994E1,3.3202875E2,3.108403E0,3.6998523E2,6.515741E1,2.1510653E0,8.148863E0,6.069533E0,4.5111327E0,2.1718166E1,2.1600761E1,1.8549696E1,5.48493E1,1.4019051E1,3.180097E2,1.2848659E0,1.8235371E0,2.8282367E2,8.716156E1,8.459847E0,5.6697563E1,1.0312289E0,1.1198364E0,5.7204995E0,2.428363E0,1.2241205E0,4.8454127E0,3.3114092E0,1.1997235E0,1.344351E1,8.274655E0,7.9348483E0,1.3665914E1,2.300308E0,1.6249388E1,4.8039776E1,6.809523E0,1.0275819E1,3.7432315E0,1.4080713E2,1.7720256E2],"tree_param":{"num_deleted":"0","num_feature":"10","num_nodes":"53","size_leaf_vector":"1"}},{"base_weights":[-8.230876E-3,7.111945E-2,-9.854078E-2,4.4352327E-2,6.153524E-1,-1.0676327E-1,1.8846186E-1,8.7199783E-1,3.5063658E-2,6.2439132E-2,7.190146E-1,3.5129577E-1,-1.2950073E-1,1.7269957E-1,-2.007177E-2,2.0746734E-2,4.465712E-1,-6.341238E-2,7.7239595E-2,1.7012441E-1,3.251128E-1,1.0953323E0,-5.225923E-2,-4.0558177E-1,-9.190651E-2,-3.878916E-2,6.70364E-3,3.479623E-2,1.299252E-1,8.313875E-2,-5.4741815E-2,2.4750821E-1,4.5800302E-2,-7.484702E-2,4.377301E-2,-1.330262E-1,-3.9980713E-2,-1.9964965E-3,-3.766048E-2],"categories":[],"categories_nodes":[],"categories_segments":[],"categories_sizes":[],"default_left":[0,0,0,0,0,0,0,0,0,0,0,0,0,0,0,0,0,0,0,0,0,0,0,0,0,0,0,0,0,0,0,0,0,0,0,0,0,0,0],"id":22,"left_children":[1,3,5,7,9,11,-1,13,15,17,19,21,23,-1,-1,25,27,-1,-1,-1,29,31,33,35,37,-1,-1,-1,-1,-1,-1,-1,-1,-1,-1,-1,-1,-1,-1],"loss_changes":[6.5316534E0,7.0413303E0,4.883078E0,3.5331612E0,1.2543945E0,4.467796E0,0E0,1.5877542E0,2.6976483E0,1.2438589E0,2.73742E0,6.167355E0,4.1688914E0,0E0,0E0,2.9883845E0,1.1856623E0,0E0,0E0,0E0,1.9651306E0,2.6520853E0,2.3202553E0,2.994144E0,4.4748545E0,0E0,0E0,0E0,0E0,0E0,0E0,0E0,0E0,0E0,0E0,0E0,0E0,0E0,0E0],"parents":[2147483647,0,0,1,1,2,2,3,3,4,4,5,5,7,7,8,8,9,9,10,10,11,11,12,12,15,15,16,16,20,20,21,21,22,22,23,23,24,24],"right_children":[2,4,6,8,10,12,-1,14,16,18,20,22,24,-1,-1,26,28,-1,-1,-1,30,32,34,36,38,-1,-1,-1,-1,-1,-1,-1,-1,-1,-1,-1,-1,-1,-1],"split_conditions":[1E0,5.6E1,2.040174E5,4.29E2,5.34E2,1E0,1.8846186E-1,8E0,3E0,9.981831E4,6.43E2,6.193121E4,3.1E1,1.7269957E-1,-2.007177E-2,5.1E2,4.3E1,-6.341238E-2,7.7239595E-2,1.7012441E-1,1.554072E5,6.53E2,4E1,4.180018E4,2E0,-3.878916E-2,6.70364E-3,3.479623E-2,1.299252E-1,8.313875E-2,-5.4741815E-2,2.4750821E-1,4.5800302E-2,-7.484702E-2,4.377301E-2,-1.330262E-1,-3.9980713E-2,-1.9964965E-3,-3.766048E-2],"split_indices":[8,3,5,0,0,4,0,4,6,9,0,9,3,0,0,0,3,0,0,0,9,0,3,9,6,0,0,0,0,0,0,0,0,0,0,0,0,0,0],"split_type":[0,0,0,0,0,0,0,0,0,0,0,0,0,0,0,0,0,0,0,0,0,0,0,0,0,0,0,0,0,0,0,0,0,0,0,0,0,0,0],"sum_hessian":[9.0948505E2,4.8423074E2,4.252543E2,4.6256195E2,2.1668785E1,4.236049E2,1.6494293E0,4.102921E0,4.5845905E2,3.6741176E0,1.7994667E1,1.9349436E1,4.0425543E2,3.0978959E0,1.0050253E0,4.4405997E2,1.4399054E1,1.8047197E0,1.8693979E0,7.8460817E0,1.0148586E1,6.2014966E0,1.3147939E1,4.7277184E1,3.5697827E2,3.4284576E1,4.097754E2,1.0554149E1,3.8449047E0,7.7664123E0,2.3821738E0,3.0036786E0,3.1978178E0,5.5248246E0,7.623114E0,9.391852E0,3.788533E1,2.3969699E2,1.1728127E2],"tree_param":{"num_deleted":"0","num_feature":"10","num_nodes":"39","size_leaf_vector":"1"}},{"base_weights":[-6.357145E-3,7.395582E-2,-8.943159E-2,1.6041219E-3,2.0819825E-1,8.4081315E-2,-1.5039466E-1,-5.576492E-1,4.4113476E-2,3.5451037E-1,-1.3488773E-1,-2.1561863E-1,2.5463188E-1,-1.9033974E-1,1.6192122E-1,-7.161248E-1,-1.1332415E-1,2.1535616E-1,-1.24394275E-1,1.3368413E-1,6.0586876E-1,1.4158595E-1,-5.6403047E-1,1.6995784E-2,-4.057219E-1,4.182637E-1,-1.06785715E-1,-1.0716117E-1,-4.2442444E-1,9.2004764E-1,-1.0630056E-1,-1.4347121E-1,-6.639822E-2,9.462287E-2,-7.820331E-2,6.7002233E-3,6.9444716E-2,-3.880423E-2,1.7112905E-2,3.3362738E-3,1.6652466E-1,4.0272627E-2,1.24944076E-1,3.875023E-2,-1.2372071E-1,-3.7681036E-2,-1.3837123E-1,-3.9028496E-2,6.571183E-2,-9.498339E-2,2.335287E-3,-1.8367214E-2,8.3336666E-2,1.7706124E-2,-8.4800206E-2,-1.891681E-2,9.8622024E-2,-1.181907E-1,-3.4360398E-2,2.4984704E-2,1.8338571E-1,7.199123E-3,-9.292285E-2],"categories":[],"categories_nodes":[],"categories_segments":[],"categories_sizes":[],"default_left":[0,0,0,0,0,0,0,0,0,0,0,0,0,0,0,0,0,0,0,0,0,0,0,0,0,0,0,0,0,0,0,0,0,0,0,0,0,0,0,0,0,0,0,0,0,0,0,0,0,0,0,0,0,0,0,0,0,0,0,0,0,0,0],"id":23,"left_children":[1,3,5,7,9,11,13,15,17,19,21,23,25,27,29,31,33,35,37,39,41,43,45,47,49,51,53,55,57,59,61,-1,-1,-1,-1,-1,-1,-1,-1,-1,-1,-1,-1,-1,-1,-1,-1,-1,-1,-1,-1,-1,-1,-1,-1,-1,-1,-1,-1,-1,-1,-1,-1],"loss_changes":[6.042925E0,4.4729075E0,4.721615E0,7.1631284E0,8.143938E0,6.0037894E0,4.14507E0,1.4176207E0,8.106031E0,6.2102404E0,5.886742E0,1.8974175E0,4.4584045E0,5.6565485E0,7.812125E0,5.954819E-1,2.3886685E0,5.8638377E0,4.5696344E0,6.6807256E0,3.815895E0,3.661615E0,1.941042E0,2.4700637E0,2.2685015E0,3.8974714E0,2.546756E0,3.2333188E0,5.2478504E0,2.0798988E0,2.3195944E0,0E0,0E0,0E0,0E0,0E0,0E0,0E0,0E0,0E0,0E0,0E0,0E0,0E0,0E0,0E0,0E0,0E0,0E0,0E0,0E0,0E0,0E0,0E0,0E0,0E0,0E0,0E0,0E0,0E0,0E0,0E0,0E0],"parents":[2147483647,0,0,1,1,2,2,3,3,4,4,5,5,6,6,7,7,8,8,9,9,10,10,11,11,12,12,13,13,14,14,15,15,16,16,17,17,18,18,19,19,20,20,21,21,22,22,23,23,24,24,25,25,26,26,27,27,28,28,29,29,30,30],"right_children":[2,4,6,8,10,12,14,16,18,20,22,24,26,28,30,32,34,36,38,40,42,44,46,48,50,52,54,56,58,60,62,-1,-1,-1,-1,-1,-1,-1,-1,-1,-1,-1,-1,-1,-1,-1,-1,-1,-1,-1,-1,-1,-1,-1,-1,-1,-1,-1,-1,-1,-1,-1,-1],"split_conditions":[1E0,1.310432E5,5.82E2,2.8E1,1.8025169E5,3.8E1,1.7738369E5,7.09E2,6.548294E4,6E0,1.1949288E5,9.151071E4,2E0,1.2952657E5,1.8342177E5,1E0,7.37E2,6.8E2,1.0876105E5,1.5599416E5,9.625298E4,7.84E2,1.9280025E5,5.45E2,1.6185498E5,6.317644E4,1.2170273E5,1.2619254E5,3.7E1,7.79675E4,2E0,-1.4347121E-1,-6.639822E-2,9.462287E-2,-7.820331E-2,6.7002233E-3,6.9444716E-2,-3.880423E-2,1.7112905E-2,3.3362738E-3,1.6652466E-1,4.0272627E-2,1.24944076E-1,3.875023E-2,-1.2372071E-1,-3.7681036E-2,-1.3837123E-1,-3.9028496E-2,6.571183E-2,-9.498339E-2,2.335287E-3,-1.8367214E-2,8.3336666E-2,1.7706124E-2,-8.4800206E-2,-1.891681E-2,9.8622024E-2,-1.181907E-1,-3.4360398E-2,2.4984704E-2,1.8338571E-1,7.199123E-3,-9.292285E-2],"split_indices":[2,9,0,3,9,3,9,0,9,4,5,9,6,9,9,1,0,0,9,5,5,0,9,0,9,5,5,9,3,5,1,0,0,0,0,0,0,0,0,0,0,0,0,0,0,0,0,0,0,0,0,0,0,0,0,0,0,0,0,0,0,0,0],"split_type":[0,0,0,0,0,0,0,0,0,0,0,0,0,0,0,0,0,0,0,0,0,0,0,0,0,0,0,0,0,0,0,0,0,0,0,0,0,0,0,0,0,0,0,0,0,0,0,0,0,0,0,0,0,0,0,0,0,0,0,0,0,0,0],"sum_hessian":[9.037289E2,4.595574E2,4.4417148E2,2.9927252E2,1.6028487E2,1.153847E2,3.2878677E2,2.0284977E1,2.7898755E2,1.1234222E2,4.7942657E1,4.175191E1,7.363278E1,2.9184985E2,3.6936928E1,1.4501186E1,5.7837906E0,1.3823299E2,1.4075456E2,6.061866E1,5.1723553E1,2.9565357E1,1.8377302E1,1.9186049E1,2.256586E1,5.0576836E1,2.305595E1,2.1640964E2,7.544021E1,9.0178585E0,2.791907E1,6.3886867E0,8.1125E0,1.8549093E0,3.9288814E0,8.252506E1,5.5707924E1,8.999114E1,5.0763424E1,5.5327145E1,5.291517E0,2.1686588E1,3.0036964E1,2.7032288E1,2.5330698E0,1.0721339E1,7.6559625E0,1.1800345E1,7.385703E0,1.4326413E1,8.239447E0,1.0264765E1,4.031207E1,1.5968951E1,7.0869994E0,2.1199072E2,4.4189115E0,2.5310152E1,5.013006E1,3.0276368E0,5.990222E0,2.216223E1,5.7568393E0],"tree_param":{"num_deleted":"0","num_feature":"10","num_nodes":"63","size_leaf_vector":"1"}},{"base_weights":[-6.2473067E-3,-2.1691931E-2,4.366624E-1,3.3795122E-2,-1.5889412E-1,2.4764898E-1,7.7628285E-1,2.5566512E-1,-2.7590284E-2,-4.024079E-1,-1.3043432E-2,1.02607206E-1,6.299939E-1,8.796459E-1,-1.0843913E-2,3.3650008E-1,-9.792921E-3,-2.0451477E-1,8.541654E-2,-1.0556357E-1,-4.974379E-1,-8.872431E-2,3.4988675E-1,-3.5604678E-2,5.623476E-1,1.185205E-1,2.2383189E-2,5.5529848E-2,1.4405575E-1,-5.4832872E-2,5.710948E-2,2.7862651E-2,-6.0197897E-2,-5.009026E-2,2.7463218E-2,4.1258015E-2,-4.145702E-2,-4.4751495E-2,1.1934208E-1,-4.8162546E-2,-1.0835954E-1,-6.751601E-3,-9.8644204E-2,2.1888502E-1,2.5311444E-2,3.2181766E-2,-6.2438365E-2,1.1805544E-1,2.4398578E-2],"categories":[],"categories_nodes":[],"categories_segments":[],"categories_sizes":[],"default_left":[0,0,0,0,0,0,0,0,0,0,0,0,0,0,0,0,0,0,0,0,0,0,0,0,0,0,0,0,0,0,0,0,0,0,0,0,0,0,0,0,0,0,0,0,0,0,0,0,0],"id":24,"left_children":[1,3,5,7,9,11,13,15,17,19,21,23,25,27,-1,29,31,33,35,37,39,41,43,45,47,-1,-1,-1,-1,-1,-1,-1,-1,-1,-1,-1,-1,-1,-1,-1,-1,-1,-1,-1,-1,-1,-1,-1,-1],"loss_changes":[6.1764293E0,6.644628E0,1.7608204E0,8.475634E0,8.920329E0,1.1007649E0,9.766679E-1,2.896922E0,9.773292E0,2.6020403E0,4.376417E0,1.0640106E0,3.1209493E-1,2.922535E-2,0E0,3.3498993E0,2.5588927E0,9.616397E0,2.0553621E1,4.422384E0,2.5853233E0,3.2457333E0,5.2799015E0,1.3817041E0,2.1838307E-1,0E0,0E0,0E0,0E0,0E0,0E0,0E0,0E0,0E0,0E0,0E0,0E0,0E0,0E0,0E0,0E0,0E0,0E0,0E0,0E0,0E0,0E0,0E0,0E0],"parents":[2147483647,0,0,1,1,2,2,3,3,4,4,5,5,6,6,7,7,8,8,9,9,10,10,11,11,12,12,13,13,15,15,16,16,17,17,18,18,19,19,20,20,21,21,22,22,23,23,24,24],"right_children":[2,4,6,8,10,12,14,16,18,20,22,24,26,28,-1,30,32,34,36,38,40,42,44,46,48,-1,-1,-1,-1,-1,-1,-1,-1,-1,-1,-1,-1,-1,-1,-1,-1,-1,-1,-1,-1,-1,-1,-1,-1],"split_conditions":[3E0,2E0,4.3E1,5.756894E4,4.540885E4,1.2761656E5,6.5E1,8E0,1E0,4.7349E4,2E0,1.6347102E5,1.5729602E5,6.723433E4,-1.0843913E-2,2.9E1,1E0,1.4266994E5,2E0,4.001476E4,1E0,7.93E2,5.31E2,6.53E2,1.7529589E5,1.185205E-1,2.2383189E-2,5.5529848E-2,1.4405575E-1,-5.4832872E-2,5.710948E-2,2.7862651E-2,-6.0197897E-2,-5.009026E-2,2.7463218E-2,4.1258015E-2,-4.145702E-2,-4.4751495E-2,1.1934208E-1,-4.8162546E-2,-1.0835954E-1,-6.751601E-3,-9.8644204E-2,2.1888502E-1,2.5311444E-2,3.2181766E-2,-6.2438365E-2,1.1805544E-1,2.4398578E-2],"split_indices":[6,6,3,5,5,5,3,4,1,9,1,9,5,9,0,3,1,5,1,9,2,0,0,0,9,0,0,0,0,0,0,0,0,0,0,0,0,0,0,0,0,0,0,0,0,0,0,0,0],"split_type":[0,0,0,0,0,0,0,0,0,0,0,0,0,0,0,0,0,0,0,0,0,0,0,0,0,0,0,0,0,0,0,0,0,0,0,0,0,0,0,0,0,0,0,0,0,0,0,0,0],"sum_hessian":[9.005262E2,8.711012E2,2.9424988E1,6.207944E2,2.5030682E2,2.0014982E1,9.4100065E0,1.3384892E2,4.8694543E2,9.310265E1,1.5720416E2,1.5430004E1,4.584978E0,8.355614E0,1.0543926E0,1.0239951E2,3.144942E1,1.8948161E2,2.9746384E2,2.3089382E1,7.001327E1,1.3070428E2,2.6499886E1,1.2572796E1,2.8572083E0,2.956659E0,1.6283191E0,1.9069644E0,6.44865E0,5.6383266E0,9.6761185E1,2.1324623E1,1.0124797E1,1.4215472E2,4.732689E1,1.9532393E2,1.021399E2,1.9571575E1,3.5178077E0,4.0607075E1,2.940619E1,1.2237992E2,8.324357E0,2.72935E0,2.3770536E1,7.8502655E0,4.72253E0,1.2086453E0,1.6485628E0],"tree_param":{"num_deleted":"0","num_feature":"10","num_nodes":"49","size_leaf_vector":"1"}},{"base_weights":[-5.352994E-3,-1.9179821E-2,4.036728E-1,2.8393578E-2,-1.3867332E-1,2.851484E-1,1.4600234E-1,2.1732785E-1,-2.36429E-2,-3.628145E-1,-1.0680443E-2,4.2483617E-2,5.241838E-1,1.5849899E-1,5.548373E-1,-1.7586018E-1,7.2656356E-2,3.3413345E-1,-3.9750174E-1,3.5845585E-2,-5.210285E-1,-1.8843319E-1,1.3417934E-1,3.7225634E-2,7.6957405E-1,3.46663E-2,-8.242861E-2,-1.005704E-1,1.0383615E-1,-4.3379083E-2,2.3119695E-2,3.44444E-2,-3.5225123E-2,-5.0241917E-2,2.0442566E-1,-9.218647E-2,-4.2558316E-2,1.0894156E-1,1.8330483E-4,-1.0612248E-1,-2.2237662E-3,6.0561333E-2,-4.510486E-2,5.950355E-2,-5.4487392E-2,1.2597983E-2,1.2764472E-1],"categories":[],"categories_nodes":[],"categories_segments":[],"categories_sizes":[],"default_left":[0,0,0,0,0,0,0,0,0,0,0,0,0,0,0,0,0,0,0,0,0,0,0,0,0,0,0,0,0,0,0,0,0,0,0,0,0,0,0,0,0,0,0,0,0,0,0],"id":25,"left_children":[1,3,5,7,9,11,-1,13,15,17,19,21,23,25,27,29,31,33,35,37,39,41,-1,43,45,-1,-1,-1,-1,-1,-1,-1,-1,-1,-1,-1,-1,-1,-1,-1,-1,-1,-1,-1,-1,-1,-1],"loss_changes":[5.0581555E0,4.9198427E0,1.6971326E0,6.0941944E0,7.065416E0,1.4640157E0,0E0,2.5695376E0,7.1441073E0,2.2973776E0,3.7674398E0,2.8843722E0,1.5032673E0,6.0583954E0,3.7415247E0,7.105895E0,1.447106E1,3.7521737E0,1.9434938E0,3.480293E0,1.2405682E0,8.983052E-1,0E0,9.137535E-1,4.013548E-1,0E0,0E0,0E0,0E0,0E0,0E0,0E0,0E0,0E0,0E0,0E0,0E0,0E0,0E0,0E0,0E0,0E0,0E0,0E0,0E0,0E0,0E0],"parents":[2147483647,0,0,1,1,2,2,3,3,4,4,5,5,7,7,8,8,9,9,10,10,11,11,12,12,13,13,14,14,15,15,16,16,17,17,18,18,19,19,20,20,21,21,23,23,24,24],"right_children":[2,4,6,8,10,12,-1,14,16,18,20,22,24,26,28,30,32,34,36,38,40,42,-1,44,46,-1,-1,-1,-1,-1,-1,-1,-1,-1,-1,-1,-1,-1,-1,-1,-1,-1,-1,-1,-1,-1,-1],"split_conditions":[3E0,2E0,4E0,5.481755E4,4.540885E4,3.934483E4,1.4600234E-1,1.6898977E5,1E0,1E0,1.8424325E5,1.6347102E5,3.6E1,1.533737E5,2.9E1,1.4266994E5,2E0,7.06E2,3.6E1,4.79E2,4.7E1,2E0,1.3417934E-1,1.3177252E5,1.809496E4,3.46663E-2,-8.242861E-2,-1.005704E-1,1.0383615E-1,-4.3379083E-2,2.3119695E-2,3.44444E-2,-3.5225123E-2,-5.0241917E-2,2.0442566E-1,-9.218647E-2,-4.2558316E-2,1.0894156E-1,1.8330483E-4,-1.0612248E-1,-2.2237662E-3,6.0561333E-2,-4.510486E-2,5.950355E-2,-5.4487392E-2,1.2597983E-2,1.2764472E-1],"split_indices":[6,6,6,5,5,5,0,9,1,4,9,9,3,9,3,5,1,0,3,0,3,4,0,9,9,0,0,0,0,0,0,0,0,0,0,0,0,0,0,0,0,0,0,0,0,0,0],"split_type":[0,0,0,0,0,0,0,0,0,0,0,0,0,0,0,0,0,0,0,0,0,0,0,0,0,0,0,0,0,0,0,0,0,0,0,0,0,0,0,0,0,0,0,0,0,0,0],"sum_hessian":[8.920046E2,8.637589E2,2.8245647E1,6.1834314E2,2.4541574E2,2.4623194E1,3.6224537E0,1.328423E2,4.855009E2,8.85363E1,1.5687944E2,1.2803263E1,1.1819932E1,1.1437587E2,1.8466429E1,1.8780968E2,2.976912E2,3.7882738E0,8.4748024E1,1.4462447E2,1.2254968E1,1.0686035E1,2.1172268E0,4.346445E0,7.4734864E0,1.0434826E2,1.0027609E1,1.4708107E0,1.6995619E1,1.3988918E2,4.79205E1,1.9724927E2,1.00441925E2,2.7039788E0,1.0842949E0,2.7630896E1,5.711713E1,5.95232E0,1.3867215E2,8.665498E0,3.5894701E0,1.2892499E0,9.396786E0,2.2954807E0,2.0509644E0,1.0086987E0,6.464788E0],"tree_param":{"num_deleted":"0","num_feature":"10","num_nodes":"47","size_leaf_vector":"1"}},{"base_weights":[-4.5015346E-3,6.417954E-2,-8.33099E-2,4.075344E-2,5.629833E-1,-9.0891175E-2,1.6506197E-1,9.2768E-1,3.3580612E-2,6.56338E-1,-3.912502E-2,2.4358355E-3,-1.8274125E-1,4.5070045E-2,1.6750167E-1,2.3497917E-2,6.1702526E-1,9.960868E-3,7.460528E-1,-1.0679294E-1,1.09566964E-1,-1.1176714E-1,1.3163649E-1,1.9040067E-2,-2.7303687E-1,8.1985565E-3,-3.3081554E-2,-1.9410018E-2,1.7915134E-1,-8.804457E-2,9.499658E-2,1.2182371E-1,-4.6117636E-3,9.447214E-3,-7.560918E-2,5.0276544E-2,-3.0688992E-2,1.3017572E-2,-9.0738855E-2,-2.5454585E-2,-8.508283E-2],"categories":[],"categories_nodes":[],"categories_segments":[],"categories_sizes":[],"default_left":[0,0,0,0,0,0,0,0,0,0,0,0,0,0,0,0,0,0,0,0,0,0,0,0,0,0,0,0,0,0,0,0,0,0,0,0,0,0,0,0,0],"id":26,"left_children":[1,3,5,7,9,11,-1,13,15,17,19,21,23,-1,-1,25,27,29,31,-1,-1,33,35,37,39,-1,-1,-1,-1,-1,-1,-1,-1,-1,-1,-1,-1,-1,-1,-1,-1],"loss_changes":[4.7970357E0,5.5110493E0,3.803464E0,2.853468E0,1.2154403E0,3.5233839E0,0E0,9.123111E-2,2.637599E0,1.058505E0,2.479877E0,3.037099E0,3.7792993E0,0E0,0E0,3.3898919E0,3.4377613E0,1.5824707E0,8.5313034E-1,0E0,0E0,7.522502E0,6.677261E0,2.7988682E0,4.2561607E0,0E0,0E0,0E0,0E0,0E0,0E0,0E0,0E0,0E0,0E0,0E0,0E0,0E0,0E0,0E0,0E0],"parents":[2147483647,0,0,1,1,2,2,3,3,4,4,5,5,7,7,8,8,9,9,10,10,11,11,12,12,15,15,16,16,17,17,18,18,21,21,22,22,23,23,24,24],"right_children":[2,4,6,8,10,12,-1,14,16,18,20,22,24,-1,-1,26,28,30,32,-1,-1,34,36,38,40,-1,-1,-1,-1,-1,-1,-1,-1,-1,-1,-1,-1,-1,-1,-1,-1],"split_conditions":[1E0,5.6E1,2.040174E5,4.16E2,1.7368039E5,1E0,1.6506197E-1,9.59229E4,1.8634797E5,5.07E2,1.8342177E5,1.0876105E5,1E0,4.5070045E-2,1.6750167E-1,1.4952534E5,6.45E2,8.960281E4,6.9E1,-1.0679294E-1,1.09566964E-1,7.480099E4,6.79E2,5.9E1,8E0,8.1985565E-3,-3.3081554E-2,-1.9410018E-2,1.7915134E-1,-8.804457E-2,9.499658E-2,1.2182371E-1,-4.6117636E-3,9.447214E-3,-7.560918E-2,5.0276544E-2,-3.0688992E-2,1.3017572E-2,-9.0738855E-2,-2.5454585E-2,-8.508283E-2],"split_indices":[8,3,5,0,9,2,0,5,5,0,9,9,7,0,0,5,0,9,3,0,0,9,0,3,4,0,0,0,0,0,0,0,0,0,0,0,0,0,0,0,0],"split_type":[0,0,0,0,0,0,0,0,0,0,0,0,0,0,0,0,0,0,0,0,0,0,0,0,0,0,0,0,0,0,0,0,0,0,0,0,0,0,0,0,0],"sum_hessian":[8.8427716E2,4.72597E2,4.1168018E2,4.5243048E2,2.0166498E1,4.0997763E2,1.7025285E0,2.6000438E0,4.498304E2,1.7381495E1,2.7850034E0,2.0383673E2,2.061409E2,1.2017324E0,1.3983114E0,4.4321143E2,6.6190057E0,2.2538667E0,1.5127627E1,1.5258448E0,1.2591585E0,1.08269844E2,9.556689E1,6.3972446E1,1.4216846E2,3.9371774E2,4.949367E1,3.2250845E0,3.393921E0,1.1811548E0,1.072712E0,1.3899282E1,1.2283444E0,7.54845E1,3.2785347E1,5.9531788E1,3.6035103E1,5.8483795E1,5.48865E0,1.063773E2,3.5791157E1],"tree_param":{"num_deleted":"0","num_feature":"10","num_nodes":"41","size_leaf_vector":"1"}},{"base_weights":[-3.5553828E-3,-5.037721E-2,1.0995504E-1,6.9795705E-2,-1.1235726E-1,1.3696012E-1,-3.6568367E-1,-9.325946E-2,3.0001074E-1,-8.145814E-2,-5.3359747E-1,2.6474214E-1,3.159607E-2,4.666234E-2,-5.0115997E-1,5.1829327E-2,-2.4546072E-1,6.801747E-1,9.372681E-2,5.20855E-3,-2.238276E-1,-6.755561E-1,4.9457398E-1,3.1604493E-1,-2.823299E-1,3.3271122E-1,-9.840638E-2,2.6593534E-2,-6.4335793E-1,-1.5444401E-2,5.517363E-2,-1.2220071E-2,-1.3522115E-1,-2.9202765E-2,1.5098235E-1,-7.3801585E-2,4.8520904E-2,-1.0270495E-2,4.8020545E-2,-2.619802E-2,-1.2850136E-1,-1.4862311E-1,-2.9637787E-2,1.3643706E-1,-3.4719978E-2,2.2350095E-2,8.609323E-2,-1.2106541E-1,3.527776E-2,1.651518E-1,2.296896E-2,-1.8498909E-2,1.3895127E-1,-1.340062E-1,-3.2122098E-2],"categories":[],"categories_nodes":[],"categories_segments":[],"categories_sizes":[],"default_left":[0,0,0,0,0,0,0,0,0,0,0,0,0,0,0,0,0,0,0,0,0,0,0,0,0,0,0,0,0,0,0,0,0,0,0,0,0,0,0,0,0,0,0,0,0,0,0,0,0,0,0,0,0,0,0],"id":27,"left_children":[1,3,5,7,9,11,13,15,17,19,21,23,25,-1,27,29,31,33,35,37,39,41,43,45,47,49,51,-1,53,-1,-1,-1,-1,-1,-1,-1,-1,-1,-1,-1,-1,-1,-1,-1,-1,-1,-1,-1,-1,-1,-1,-1,-1,-1,-1],"loss_changes":[4.691715E0,4.6624665E0,3.3615038E0,8.033104E0,5.3277907E0,3.2859402E0,1.4508107E0,2.7863007E0,6.8887815E0,4.759529E0,4.4240613E0,3.1889248E0,5.326806E0,0E0,1.2862859E0,3.223505E0,6.539809E0,9.054569E0,8.049133E0,5.6068916E0,4.3923125E0,3.5781279E0,1.4088101E0,4.28496E0,2.904811E0,5.4897046E0,2.5460837E0,0E0,9.0982294E-1,0E0,0E0,0E0,0E0,0E0,0E0,0E0,0E0,0E0,0E0,0E0,0E0,0E0,0E0,0E0,0E0,0E0,0E0,0E0,0E0,0E0,0E0,0E0,0E0,0E0,0E0],"parents":[2147483647,0,0,1,1,2,2,3,3,4,4,5,5,6,6,7,7,8,8,9,9,10,10,11,11,12,12,14,14,15,15,16,16,17,17,18,18,19,19,20,20,21,21,22,22,23,23,24,24,25,25,26,26,28,28],"right_children":[2,4,6,8,10,12,14,16,18,20,22,24,26,-1,28,30,32,34,36,38,40,42,44,46,48,50,52,-1,54,-1,-1,-1,-1,-1,-1,-1,-1,-1,-1,-1,-1,-1,-1,-1,-1,-1,-1,-1,-1,-1,-1,-1,-1,-1,-1],"split_conditions":[4.6E1,6.960848E4,6.6E1,1.1763328E5,7.93E2,5E0,5.39E2,7.539553E4,1.3169856E5,1.1965645E5,1.878399E5,1.8191827E5,1E0,4.666234E-2,1E0,2E0,2E0,1E0,2.036768E4,1.0812239E5,1.9280025E5,6E0,6E0,1.061747E5,1E0,5.49E2,1.7772912E5,2.6593534E-2,1.1568081E5,-1.5444401E-2,5.517363E-2,-1.2220071E-2,-1.3522115E-1,-2.9202765E-2,1.5098235E-1,-7.3801585E-2,4.8520904E-2,-1.0270495E-2,4.8020545E-2,-2.619802E-2,-1.2850136E-1,-1.4862311E-1,-2.9637787E-2,1.3643706E-1,-3.4719978E-2,2.2350095E-2,8.609323E-2,-1.2106541E-1,3.527776E-2,1.651518E-1,2.296896E-2,-1.8498909E-2,1.3895127E-1,-1.340062E-1,-3.2122098E-2],"split_indices":[3,9,3,5,0,4,0,5,5,5,9,9,7,0,8,1,1,1,9,5,9,4,4,9,2,0,5,0,5,0,0,0,0,0,0,0,0,0,0,0,0,0,0,0,0,0,0,0,0,0,0,0,0,0,0],"split_type":[0,0,0,0,0,0,0,0,0,0,0,0,0,0,0,0,0,0,0,0,0,0,0,0,0,0,0,0,0,0,0,0,0,0,0,0,0,0,0,0,0,0,0,0,0,0,0,0,0,0,0,0,0,0,0],"sum_hessian":[8.8072766E2,6.2392255E2,2.5680515E2,2.1225531E2,4.1166724E2,2.436818E2,1.3123337E1,1.24599625E2,8.7655685E1,3.846458E2,2.7021439E1,1.09441795E2,1.3424E2,1.9726815E0,1.1150656E1,6.4127914E1,6.0471706E1,3.002495E1,5.7630737E1,2.3969568E2,1.4495012E2,2.404458E1,2.9768581E0,1.0044468E2,8.997108E0,4.0009552E1,9.423046E1,1.8893697E0,9.261286E0,4.3495533E1,2.0632385E1,4.92773E1,1.1194404E1,8.267383E0,2.1757566E1,1.5914686E1,4.171605E1,1.9488443E2,4.4811253E1,1.3568312E2,9.2669935E0,1.3841742E1,1.0202839E1,1.7333027E0,1.2435554E0,6.191865E1,3.852603E1,4.1893907E0,4.8077183E0,6.6080556E0,3.3401497E1,9.285214E1,1.378312E0,5.168929E0,4.0923567E0],"tree_param":{"num_deleted":"0","num_feature":"10","num_nodes":"55","size_leaf_vector":"1"}},{"base_weights":[-3.559482E-3,-1.6391618E-2,3.8717943E-1,8.307753E-1,-2.1989038E-2,2.135456E-1,7.340521E-1,1.5843438E-1,-1.5309653E-2,3.887484E-2,-9.2412196E-2,8.107388E-2,5.746192E-1,8.117668E-1,1.8689772E-2,1.1252228E-2,3.425493E-1,-9.966619E-2,1.4675206E-1,2.9828006E-1,-1.5481387E-1,1.0961614E-1,1.9410169E-2,4.2401914E-2,1.355104E-1,6.422411E-2,-7.503832E-4,9.202139E-2,1.0508894E-2,-1.2822956E-2,-1.0277356E-1,8.617108E-2,-2.214519E-2,-6.863583E-2,6.007189E-2],"categories":[],"categories_nodes":[],"categories_segments":[],"categories_sizes":[],"default_left":[0,0,0,0,0,0,0,0,0,0,0,0,0,0,0,0,0,0,0,0,0,0,0,0,0,0,0,0,0,0,0,0,0,0,0],"id":28,"left_children":[1,3,5,7,9,11,13,-1,-1,15,17,19,21,23,-1,25,27,29,-1,31,33,-1,-1,-1,-1,-1,-1,-1,-1,-1,-1,-1,-1,-1,-1],"loss_changes":[4.4092917E0,4.054453E0,1.5273643E0,1.2882254E0,3.6321104E0,9.1218334E-1,3.2121754E-1,0E0,0E0,3.8111362E0,3.1481311E0,8.5717964E-1,2.6805842E-1,1.1928797E-1,0E0,2.8342443E0,2.753944E0,3.1877177E0,0E0,1.1418023E0,1.5696185E0,0E0,0E0,0E0,0E0,0E0,0E0,0E0,0E0,0E0,0E0,0E0,0E0,0E0,0E0],"parents":[2147483647,0,0,1,1,2,2,3,3,4,4,5,5,6,6,9,9,10,10,11,11,12,12,13,13,15,15,16,16,17,17,19,19,20,20],"right_children":[2,4,6,8,10,12,14,-1,-1,16,18,20,22,24,-1,26,28,30,-1,32,34,-1,-1,-1,-1,-1,-1,-1,-1,-1,-1,-1,-1,-1,-1],"split_conditions":[3E0,4.16E2,4.3E1,5.2E1,1E0,1.2761656E5,6.4E1,1.5843438E-1,-1.5309653E-2,5.2E1,2.040174E5,6.37E2,1.5729602E5,5.7E2,1.8689772E-2,2.5E1,6.39E2,8.5E2,1.4675206E-1,1.116059E5,2E0,1.0961614E-1,1.9410169E-2,4.2401914E-2,1.355104E-1,6.422411E-2,-7.503832E-4,9.202139E-2,1.0508894E-2,-1.2822956E-2,-1.0277356E-1,8.617108E-2,-2.214519E-2,-6.863583E-2,6.007189E-2],"split_indices":[6,0,3,3,8,5,3,0,0,3,5,0,5,0,0,3,0,0,0,9,1,0,0,0,0,0,0,0,0,0,0,0,0,0,0],"split_type":[0,0,0,0,0,0,0,0,0,0,0,0,0,0,0,0,0,0,0,0,0,0,0,0,0,0,0,0,0,0,0,0,0,0,0],"sum_hessian":[8.771277E2,8.501657E2,2.6961979E1,4.6127124E0,8.45553E2,1.904451E1,7.9174676E0,3.608353E0,1.0043595E0,4.5380002E2,3.9175296E2,1.4828663E1,4.2158475E0,6.727633E0,1.1898346E0,4.1691406E2,3.688597E1,3.9001767E2,1.7353047E0,7.5823307E0,7.2463326E0,2.6463027E0,1.5695448E0,1.5962144E0,5.1314187E0,1.4694092E1,4.0221997E2,1.786856E1,1.901741E1,3.819142E2,8.103453E0,4.504189E0,3.0781415E0,4.803395E0,2.4429383E0],"tree_param":{"num_deleted":"0","num_feature":"10","num_nodes":"35","size_leaf_vector":"1"}},{"base_weights":[-2.1900567E-3,-1.3626675E-2,3.550627E-1,2.8853815E-2,-1.21664375E-1,2.4441423E-1,1.3891746E-1,1.8583491E-1,-1.5838917E-2,-3.2847503E-1,-8.392144E-3,2.8150756E-2,4.6961054E-1,1.0660631E-1,4.2087933E-1,-1.4648144E-1,6.501917E-2,-1.7435715E-1,-5.325815E-1,-7.6609924E-2,3.1080157E-1,-1.7968415E-1,1.2573372E-1,3.1329233E-2,7.14833E-1,-1.04929276E-1,2.3310306E-2,7.824275E-2,-7.686597E-2,-3.7149496E-2,2.3859281E-2,2.9362196E-2,-3.0036323E-2,-8.5043296E-2,-5.3760745E-3,-1.847515E-2,-1.01146646E-1,-1.1225904E-3,-5.7804782E-2,1.4807531E-2,1.5042403E-1,-1.0384916E-1,-1.501211E-3,7.062457E-2,-3.5065047E-2,1.3905496E-2,1.1983499E-1],"categories":[],"categories_nodes":[],"categories_segments":[],"categories_sizes":[],"default_left":[0,0,0,0,0,0,0,0,0,0,0,0,0,0,0,0,0,0,0,0,0,0,0,0,0,0,0,0,0,0,0,0,0,0,0,0,0,0,0,0,0,0,0,0,0,0,0],"id":29,"left_children":[1,3,5,7,9,11,-1,13,15,17,19,21,23,25,27,29,31,33,35,37,39,41,-1,43,45,-1,-1,-1,-1,-1,-1,-1,-1,-1,-1,-1,-1,-1,-1,-1,-1,-1,-1,-1,-1,-1,-1],"loss_changes":[3.5747967E0,3.8936348E0,1.4885533E0,4.2770553E0,5.6056995E0,1.1601926E0,0E0,2.470684E0,5.0284467E0,2.5714436E0,3.4144456E0,2.398995E0,1.2393131E0,4.135442E0,3.4372783E0,5.6644163E0,1.0240233E1,2.684903E0,2.0031366E0,2.7524478E0,3.9542825E0,9.8913884E-1,0E0,7.226292E-1,3.1723976E-1,0E0,0E0,0E0,0E0,0E0,0E0,0E0,0E0,0E0,0E0,0E0,0E0,0E0,0E0,0E0,0E0,0E0,0E0,0E0,0E0,0E0,0E0],"parents":[2147483647,0,0,1,1,2,2,3,3,4,4,5,5,7,7,8,8,9,9,10,10,11,11,12,12,13,13,14,14,15,15,16,16,17,17,18,18,19,19,20,20,21,21,23,23,24,24],"right_children":[2,4,6,8,10,12,-1,14,16,18,20,22,24,26,28,30,32,34,36,38,40,42,-1,44,46,-1,-1,-1,-1,-1,-1,-1,-1,-1,-1,-1,-1,-1,-1,-1,-1,-1,-1,-1,-1,-1,-1],"split_conditions":[3E0,2E0,4E0,5.756894E4,4.540885E4,3.934483E4,1.3891746E-1,4.7E1,1E0,1E0,2E0,1.6347102E5,3.6E1,1.24052E4,6.3E1,1.4442795E5,2E0,5.85E2,4.502623E4,1.4630131E5,1.5541761E5,5.93E2,1.2573372E-1,2.9E1,2.121567E4,-1.04929276E-1,2.3310306E-2,7.824275E-2,-7.686597E-2,-3.7149496E-2,2.3859281E-2,2.9362196E-2,-3.0036323E-2,-8.5043296E-2,-5.3760745E-3,-1.847515E-2,-1.01146646E-1,-1.1225904E-3,-5.7804782E-2,1.4807531E-2,1.5042403E-1,-1.0384916E-1,-1.501211E-3,7.062457E-2,-3.5065047E-2,1.3905496E-2,1.1983499E-1],"split_indices":[6,6,6,5,5,5,0,3,1,2,1,9,3,9,3,5,1,0,9,5,5,0,0,3,9,0,0,0,0,0,0,0,0,0,0,0,0,0,0,0,0,0,0,0,0,0,0],"split_type":[0,0,0,0,0,0,0,0,0,0,0,0,0,0,0,0,0,0,0,0,0,0,0,0,0,0,0,0,0,0,0,0,0,0,0,0,0,0,0,0,0,0,0,0,0,0,0],"sum_hessian":[8.727556E2,8.4661505E2,2.614056E1,6.082024E2,2.3841264E2,2.3093855E1,3.0467045E0,1.3408327E2,4.7411914E2,8.36981E1,1.5471454E2,1.2354462E1,1.0739393E1,1.0136783E2,3.2715435E1,1.8094862E2,2.931705E2,4.8745396E1,3.49527E1,1.2809763E2,2.6616913E1,1.0451248E1,1.9032141E0,4.2576094E0,6.4817834E0,5.024483E0,9.6343346E1,2.9926405E1,2.7890298E0,1.3607596E2,4.4872654E1,1.9656123E2,9.6609276E1,1.1906299E1,3.6839096E1,9.468904E0,2.5483797E1,1.0550155E2,2.2596083E1,2.1247768E1,5.369146E0,1.8329755E0,8.618273E0,1.3098856E0,2.9477239E0,1.0219154E0,5.459868E0],"tree_param":{"num_deleted":"0","num_feature":"10","num_nodes":"47","size_leaf_vector":"1"}},{"base_weights":[-1.9927018E-3,-1.3535273E-1,2.7673004E-2,-2.887083E-1,-1.6358509E-3,2.0074192E-1,-4.1913264E-3,-8.517625E-2,-5.97909E-1,-2.8766444E-1,1.757879E-1,-1.4528582E-2,3.7743276E-1,6.50844E-2,-7.654908E-2,6.0144633E-2,-5.117412E-1,7.852233E-2,-6.7913264E-1,3.7847108E-1,-3.9311907E-1,-3.6240947E-3,6.808798E-1,2.853792E-1,-2.2044013E-1,7.947775E-1,1.2664439E-1,9.9183075E-2,-2.2864017E-1,-7.5081494E-3,-2.4885562E-1,-8.203776E-2,4.448627E-2,1.4273696E-2,-1.2530635E-1,-5.416854E-2,-1.3940291E-1,1.7089468E-1,-4.105498E-2,-8.061145E-2,2.1647913E-2,-5.3503066E-2,4.49236E-2,1.7326927E-1,-1.2612516E-2,-6.610738E-2,7.481497E-2,-1.15631305E-1,-8.910042E-3,1.5927644E-1,-8.168778E-2,1.1180859E-1,-7.119744E-3,9.6837466E-4,4.84665E-2,2.0375952E-2,-1.0893812E-1,-9.800667E-3,